float inf = 0;

;
float resnet_v1_50_conv1_weights_ARR [][][][]=
{{{{-2.4414e-03,  5.8670e-03,  2.8259e-02},
   { 1.9043e-02,  1.8753e-02,  1.8188e-02},
   { 2.1790e-02,  3.6133e-02,  1.5884e-02},
   {-3.3817e-03,  1.7151e-02,  2.4204e-03},
   {-7.6965e-02, -9.3567e-02, -5.3009e-02},
   {-7.1289e-02, -1.2408e-01, -4.7363e-02},
   { 1.4397e-02, -2.6810e-02,  1.8539e-02},},
  {{ 3.7050e-04, -7.6866e-03,  7.9880e-03},
   { 2.9129e-02,  2.4292e-02,  2.4887e-02},
   { 1.1719e-01,  1.4941e-01,  7.6721e-02},
   { 1.5076e-01,  2.1558e-01,  9.0271e-02},
   {-9.3842e-03,  1.3390e-02, -1.8921e-02},
   {-1.3025e-01, -1.7688e-01, -7.9346e-02},
   {-7.9224e-02, -1.2292e-01, -1.5358e-02},},
  {{-3.3417e-02, -7.4646e-02, -2.7466e-02},
   {-8.8074e-02, -1.5247e-01, -6.5735e-02},
   { 8.0505e-02,  6.1035e-02,  1.9989e-02},
   { 3.2397e-01,  4.1504e-01,  1.8481e-01},
   { 2.1643e-01,  3.3228e-01,  1.1554e-01},
   {-9.7351e-02, -8.1482e-02, -8.9966e-02},
   {-1.7505e-01, -2.1106e-01, -9.4666e-02},},
  {{-1.7487e-02, -5.4443e-02, -9.7885e-03},
   {-1.5137e-01, -2.5537e-01, -7.9224e-02},
   {-1.8079e-01, -2.6440e-01, -1.2976e-01},
   { 1.6711e-01,  2.1033e-01,  9.5215e-02},
   { 4.0649e-01,  5.7031e-01,  2.7002e-01},
   { 1.6357e-01,  2.7734e-01,  9.9426e-02},
   {-7.7026e-02, -2.6474e-02, -1.4931e-02},},
  {{ 2.0401e-02,  2.3056e-02,  2.3178e-02},
   {-1.0907e-01, -1.7786e-01, -4.6448e-02},
   {-2.7686e-01, -4.1187e-01, -1.8298e-01},
   {-1.7224e-01, -2.6855e-01, -1.5601e-01},
   { 1.3208e-01,  1.8579e-01,  5.3619e-02},
   { 1.4966e-01,  2.5049e-01,  8.3496e-02},
   { 2.9510e-02,  9.6375e-02,  3.6957e-02},},
  {{ 6.3843e-02,  9.7717e-02,  4.2267e-02},
   { 4.5715e-02,  3.8940e-02,  4.5959e-02},
   {-1.1566e-01, -1.9238e-01, -4.6631e-02},
   {-1.7883e-01, -2.9224e-01, -1.2708e-01},
   { 7.8487e-04, -3.7292e-02, -2.1027e-02},
   { 6.5552e-02,  9.9548e-02,  3.3234e-02},
   { 6.9702e-02,  1.0022e-01,  2.5055e-02},},
  {{ 1.8631e-02,  6.1218e-02,  1.4633e-02},
   { 3.3600e-02,  6.3416e-02,  3.5217e-02},
   {-2.0111e-02, -2.2308e-02,  4.1084e-03},
   {-1.2756e-01, -1.7053e-01, -6.0394e-02},
   {-6.0760e-02, -8.6304e-02, -1.7166e-02},
   { 7.8430e-03,  7.4196e-03,  1.1513e-02},
   { 2.7115e-02,  2.7527e-02,  4.7913e-03},},},
 {{{-4.8615e-02,  5.0446e-02, -1.1871e-02},
   {-3.8788e-02,  5.1270e-02, -7.2060e-03},
   {-3.8605e-02,  5.0232e-02, -1.0605e-02},
   {-3.1830e-02,  5.2094e-02, -8.8272e-03},
   {-3.5126e-02,  4.6143e-02, -8.6060e-03},
   {-2.8641e-02,  4.7852e-02, -4.0779e-03},
   {-3.5645e-02,  3.6469e-02, -1.1253e-02},},
  {{-3.7018e-02,  5.4688e-02, -9.4910e-03},
   {-3.0563e-02,  4.9347e-02, -9.5825e-03},
   {-2.5665e-02,  5.0079e-02, -1.1963e-02},
   {-3.0121e-02,  4.3396e-02, -1.6876e-02},
   {-2.8870e-02,  4.2419e-02, -1.0643e-02},
   {-2.9480e-02,  4.0344e-02, -8.6899e-03},
   {-3.0914e-02,  3.7231e-02, -1.0284e-02},},
  {{-3.3997e-02,  5.2216e-02, -1.5961e-02},
   {-2.5711e-02,  4.9469e-02, -1.2352e-02},
   {-2.8809e-02,  4.4678e-02, -1.7609e-02},
   {-2.8931e-02,  4.3121e-02, -2.0111e-02},
   {-2.6855e-02,  4.2450e-02, -1.6754e-02},
   {-2.6199e-02,  4.3793e-02, -8.5220e-03},
   {-3.2196e-02,  3.8574e-02, -1.1772e-02},},
  {{-2.7969e-02,  5.0140e-02, -1.3168e-02},
   {-2.2842e-02,  4.4312e-02, -1.2329e-02},
   {-2.5116e-02,  4.5105e-02, -1.2215e-02},
   {-2.5726e-02,  4.4525e-02, -1.4206e-02},
   {-3.1860e-02,  3.8940e-02, -1.5320e-02},
   {-3.2349e-02,  4.1595e-02, -1.2009e-02},
   {-3.1036e-02,  4.4434e-02, -1.3130e-02},},
  {{-2.6794e-02,  4.4189e-02, -1.6266e-02},
   {-2.1118e-02,  4.0405e-02, -1.3466e-02},
   {-2.8320e-02,  3.4088e-02, -1.7960e-02},
   {-2.5192e-02,  3.8513e-02, -1.2589e-02},
   {-2.7512e-02,  3.7659e-02, -1.0757e-02},
   {-3.1097e-02,  4.0771e-02, -9.0942e-03},
   {-2.9648e-02,  4.3915e-02, -1.2703e-02},},
  {{-2.0828e-02,  3.8361e-02, -8.3084e-03},
   {-1.3412e-02,  3.7872e-02, -4.7760e-03},
   {-2.3529e-02,  3.1830e-02, -1.2222e-02},
   {-2.5284e-02,  3.3539e-02, -8.9188e-03},
   {-2.9129e-02,  3.0594e-02, -9.8114e-03},
   {-2.7695e-02,  4.0314e-02, -4.2305e-03},
   {-3.4149e-02,  4.2480e-02, -1.0887e-02},},
  {{-2.3926e-02,  2.6703e-02, -9.1553e-03},
   {-1.6373e-02,  3.1219e-02, -3.2787e-03},
   {-1.9638e-02,  2.9922e-02, -4.6654e-03},
   {-2.2720e-02,  3.1006e-02, -2.5024e-03},
   {-2.6657e-02,  3.5522e-02, -3.1643e-03},
   {-2.4536e-02,  4.5227e-02,  2.2087e-03},
   {-3.3112e-02,  4.3671e-02, -4.2305e-03},},},
 {{{ 2.6989e-03,  3.4637e-03,  1.5144e-03},
   { 4.2572e-03,  4.5052e-03,  4.8027e-03},
   { 1.1238e-02,  1.2268e-02,  1.3100e-02},
   { 8.1940e-03,  8.4534e-03,  1.1909e-02},
   { 2.2278e-03,  1.5373e-03,  6.3858e-03},
   { 6.2084e-04, -9.8991e-04,  4.7646e-03},
   { 5.0888e-03,  4.5509e-03,  1.1253e-02},},
  {{-9.8038e-03, -1.0330e-02, -4.2191e-03},
   {-1.4236e-02, -1.3290e-02, -2.3785e-03},
   {-1.8585e-02, -1.5221e-02, -2.1019e-03},
   {-1.7731e-02, -1.4496e-02,  9.9087e-04},
   {-1.8707e-02, -1.9333e-02, -1.1959e-03},
   {-1.3237e-03, -6.9199e-03,  1.0620e-02},
   { 1.9109e-04, -2.8267e-03,  1.4458e-02},},
  {{-1.9951e-03, -1.9894e-03,  5.8708e-03},
   {-2.1729e-02, -1.8341e-02, -4.1656e-03},
   {-1.8600e-02, -1.4175e-02,  1.8177e-03},
   {-1.3298e-02, -1.1063e-02,  5.2757e-03},
   {-8.9645e-03, -9.7122e-03,  8.4991e-03},
   { 8.9569e-03,  3.6907e-03,  2.2507e-02},
   { 9.4528e-03,  5.3177e-03,  2.4963e-02},},
  {{ 2.6226e-03,  2.5711e-03,  1.0178e-02},
   {-4.0321e-03, -2.4643e-03,  1.0262e-02},
   {-2.0576e-04,  1.4744e-03,  1.3481e-02},
   { 6.5231e-03,  5.3902e-03,  1.6617e-02},
   { 1.0185e-02,  5.5389e-03,  1.9745e-02},
   { 1.9775e-02,  1.2589e-02,  2.9343e-02},
   { 2.0874e-02,  1.4679e-02,  3.3295e-02},},
  {{ 5.6992e-03,  3.5934e-03,  1.2207e-02},
   { 6.9809e-03,  4.3259e-03,  1.6144e-02},
   { 1.3153e-02,  8.7433e-03,  1.8280e-02},
   { 2.1133e-02,  1.3123e-02,  2.0477e-02},
   { 2.2827e-02,  1.0208e-02,  2.1988e-02},
   { 2.4353e-02,  1.0887e-02,  2.5024e-02},
   { 2.6993e-02,  1.5976e-02,  3.1982e-02},},
  {{-1.7271e-03, -5.3787e-03,  5.3406e-03},
   {-8.3065e-04, -6.8512e-03,  7.0419e-03},
   { 6.7482e-03, -1.0185e-03,  9.3536e-03},
   { 9.0942e-03, -2.2030e-03,  8.4686e-03},
   { 1.1253e-02, -3.0022e-03,  9.8190e-03},
   { 1.0658e-02, -4.3602e-03,  1.1360e-02},
   { 8.9798e-03, -4.0627e-03,  1.2955e-02},},
  {{ 5.5647e-04, -4.3793e-03,  5.2490e-03},
   {-1.3256e-03, -7.7209e-03,  7.1411e-03},
   { 7.3204e-03,  8.0109e-04,  1.2100e-02},
   { 1.6518e-03, -7.3547e-03,  3.2845e-03},
   { 1.7443e-03, -1.0612e-02,  2.4014e-03},
   { 5.8413e-04, -1.1086e-02,  5.0888e-03},
   { 3.9749e-03, -5.7144e-03,  1.1505e-02},},},
 {{{-1.0246e-02,  8.6899e-03,  1.7456e-02},
   { 1.3580e-02,  6.8703e-03,  1.5278e-03},
   { 5.9652e-04, -2.8477e-03, -4.9133e-03},
   { 2.4338e-03, -8.4972e-04, -8.7891e-03},
   {-1.1253e-03,  7.2145e-04, -1.1246e-02},
   { 1.6155e-03,  3.1071e-03, -5.4131e-03},
   {-2.4929e-03,  3.3646e-03, -9.9487e-03},},
  {{-7.2975e-03, -8.2321e-03, -1.0666e-02},
   { 2.1011e-02, -4.5280e-03, -2.3148e-02},
   { 1.4778e-02, -1.2657e-02, -2.7847e-02},
   { 1.4114e-02, -2.0905e-02, -4.3182e-02},
   { 4.6768e-03, -2.9282e-02, -5.0568e-02},
   { 2.1362e-02, -7.5836e-03, -2.6443e-02},
   { 1.0498e-02, -1.3206e-02, -4.5349e-02},},
  {{-1.4793e-02, -1.0674e-02, -6.2904e-03},
   { 1.4145e-02, -9.0637e-03, -1.7868e-02},
   {-1.2901e-02, -3.9276e-02, -4.5105e-02},
   {-4.3130e-04, -2.9099e-02, -2.9617e-02},
   { 1.9058e-02, -6.0539e-03,  1.2817e-02},
   { 4.8523e-03, -1.8219e-02, -1.2756e-02},
   { 4.4513e-04, -2.8442e-02, -4.5197e-02},},
  {{-6.2294e-03,  3.5591e-03,  9.6283e-03},
   { 2.3560e-02, -1.2624e-04, -6.2370e-03},
   {-1.7303e-02, -3.5065e-02, -3.5065e-02},
   { 4.5868e-02,  6.1157e-02,  7.7026e-02},
   { 1.4771e-01,  1.8518e-01,  2.2424e-01},
   { 2.4857e-02,  2.2476e-02,  4.0527e-02},
   {-1.2184e-02, -3.9154e-02, -5.0934e-02},},
  {{-1.3489e-02, -4.4136e-03, -1.3380e-03},
   { 1.3046e-02, -9.9792e-03, -2.7542e-02},
   {-2.0157e-02, -3.6774e-02, -4.6967e-02},
   { 1.9028e-02,  2.9602e-02,  3.6133e-02},
   { 9.6313e-02,  1.3184e-01,  1.5869e-01},
   { 1.1215e-02,  8.0490e-03,  2.5436e-02},
   {-8.8959e-03, -3.5461e-02, -4.1626e-02},},
  {{-2.3788e-02, -7.0381e-03,  6.9189e-04},
   { 4.4479e-03, -9.2926e-03, -2.3285e-02},
   {-5.5885e-03, -2.9465e-02, -4.0131e-02},
   {-1.6556e-02, -4.4891e-02, -6.1157e-02},
   {-2.6016e-02, -4.5715e-02, -5.2887e-02},
   {-1.9577e-02, -3.3081e-02, -3.2471e-02},
   {-5.9967e-03, -2.7054e-02, -3.5156e-02},},
  {{-2.1179e-02,  3.6335e-03,  1.1490e-02},
   { 1.0880e-02,  1.0025e-02, -2.4815e-03},
   { 1.2390e-02,  4.8714e-03, -5.5428e-03},
   { 1.5778e-02, -9.0256e-03, -3.7689e-02},
   { 2.4521e-02,  3.0441e-03, -2.2980e-02},
   { 2.0332e-03, -9.4757e-03, -2.2842e-02},
   { 9.0179e-03, -7.4120e-03, -2.3911e-02},},},
 {{{-9.3628e-02,  7.0740e-02,  2.2675e-02},
   {-1.5442e-01,  8.4595e-02,  6.6833e-02},
   {-1.7932e-01,  8.2031e-02,  8.8318e-02},
   {-2.2864e-01,  8.7769e-02,  1.4099e-01},
   {-2.3047e-01,  7.6233e-02,  1.4404e-01},
   {-2.4829e-01,  8.6731e-02,  1.5137e-01},
   {-2.5537e-01,  8.1909e-02,  1.4636e-01},},
  {{-3.2959e-02,  5.2795e-02, -1.3237e-02},
   {-1.2170e-01,  5.7648e-02,  7.1472e-02},
   {-1.8164e-01,  6.4758e-02,  1.2183e-01},
   {-2.5146e-01,  5.1208e-02,  1.8860e-01},
   {-2.5684e-01,  5.6580e-02,  2.0276e-01},
   {-2.2546e-01,  7.0984e-02,  1.9128e-01},
   {-1.8042e-01,  7.4524e-02,  1.3757e-01},},
  {{ 7.9727e-03,  2.9999e-02, -4.0588e-02},
   {-7.2876e-02,  2.5467e-02,  6.1188e-02},
   {-1.5649e-01,  2.4887e-02,  1.3196e-01},
   {-2.1948e-01,  2.3056e-02,  1.8909e-01},
   {-2.1509e-01,  4.1138e-02,  1.8799e-01},
   {-1.8555e-01,  1.4992e-02,  1.2524e-01},
   {-1.0907e-01,  2.7817e-02,  6.4575e-02},},
  {{-5.2551e-02,  1.5213e-02,  3.8757e-02},
   {-9.5581e-02, -1.1692e-03,  9.1492e-02},
   {-1.3379e-01, -2.9545e-03,  1.3574e-01},
   {-1.5515e-01,  3.2711e-03,  1.6223e-01},
   {-1.6992e-01,  6.4507e-03,  1.3843e-01},
   {-1.3623e-01,  1.3748e-02,  1.1176e-01},
   {-7.1716e-02,  1.4450e-02,  7.0007e-02},},
  {{ 3.6659e-03, -1.7700e-02, -1.6079e-03},
   { 5.5206e-02, -3.6896e-02, -1.3306e-02},
   { 8.2825e-02, -4.9347e-02, -4.0741e-02},
   { 1.2286e-01, -5.3101e-02, -1.1200e-01},
   { 1.4648e-01, -2.7161e-02, -1.2354e-01},
   { 1.3770e-01, -1.7990e-02, -9.3384e-02},
   { 1.2000e-01, -3.5309e-02, -8.2092e-02},},
  {{ 3.2227e-02, -1.6281e-02,  2.3163e-02},
   { 1.4722e-01, -6.4392e-02, -9.1797e-02},
   { 2.3645e-01, -7.5256e-02, -1.8152e-01},
   { 3.8501e-01, -6.1371e-02, -2.8491e-01},
   { 3.8110e-01, -7.6721e-02, -2.9980e-01},
   { 3.1104e-01, -6.2378e-02, -2.1948e-01},
   { 2.1240e-01, -7.2632e-02, -1.6650e-01},},
  {{ 6.7322e-02, -4.9622e-02, -3.9551e-02},
   { 2.0532e-01, -7.2144e-02, -1.3733e-01},
   { 2.9004e-01, -8.8806e-02, -2.2266e-01},
   { 4.5239e-01, -9.7534e-02, -3.2642e-01},
   { 4.3091e-01, -1.1218e-01, -3.1421e-01},
   { 3.3081e-01, -1.0425e-01, -2.4268e-01},
   { 2.5269e-01, -7.9102e-02, -1.7737e-01},},},
 {{{-2.0905e-02,  1.1090e-01, -7.7087e-02},
   {-3.3020e-02,  6.3477e-02, -2.9205e-02},
   {-1.5335e-02,  6.8054e-02, -5.8533e-02},
   {-3.2654e-02,  4.8920e-02, -1.5465e-02},
   {-2.6733e-02,  5.1941e-02, -1.0681e-02},
   {-3.4973e-02,  5.3833e-02, -3.5034e-02},
   {-4.8218e-02,  8.5632e-02, -3.7262e-02},},
  {{-4.6356e-02,  6.8298e-02, -2.9297e-02},
   {-4.4067e-02,  6.0043e-03,  2.5116e-02},
   {-9.5139e-03,  7.8011e-03,  1.6966e-03},
   {-3.6201e-03, -6.6223e-02,  5.5328e-02},
   {-1.0452e-02, -8.1299e-02,  8.5815e-02},
   {-1.4145e-02, -5.7434e-02,  6.5002e-02},
   {-4.1016e-02, -1.2291e-02,  5.5603e-02},},
  {{-3.5858e-02,  7.2449e-02, -5.7892e-02},
   {-1.7838e-02,  1.1429e-02, -1.0414e-02},
   { 2.7771e-02, -4.0253e-02, -3.8357e-03},
   { 6.2012e-02, -1.7310e-01,  7.3730e-02},
   { 7.7026e-02, -2.0569e-01,  1.1145e-01},
   { 5.3070e-02, -1.6443e-01,  9.5825e-02},
   {-1.6296e-02, -8.9172e-02,  8.4412e-02},},
  {{-2.7451e-02,  6.0944e-02, -3.4302e-02},
   { 6.8588e-03, -3.0807e-02,  3.5278e-02},
   { 5.6366e-02, -1.3586e-01,  6.4270e-02},
   { 1.4844e-01, -3.1128e-01,  1.7517e-01},
   { 1.6248e-01, -3.7134e-01,  2.1167e-01},
   { 1.1249e-01, -3.1592e-01,  1.9617e-01},
   { 1.3458e-02, -2.0789e-01,  1.8628e-01},},
  {{-2.6337e-02,  5.7404e-02, -2.7878e-02},
   {-1.4969e-02, -3.9978e-02,  2.8519e-02},
   { 5.3284e-02, -1.3892e-01,  7.9956e-02},
   { 1.5112e-01, -3.5474e-01,  1.7163e-01},
   { 2.0569e-01, -4.0454e-01,  2.3132e-01},
   { 1.3611e-01, -3.3228e-01,  2.0251e-01},
   { 2.2034e-02, -2.2644e-01,  1.7053e-01},},
  {{-2.5543e-02,  6.7993e-02, -4.9133e-02},
   {-2.4429e-02, -1.6266e-02,  3.5370e-02},
   { 2.3865e-02, -8.4106e-02,  6.8420e-02},
   { 9.1553e-02, -2.6562e-01,  1.5796e-01},
   { 1.2274e-01, -3.1982e-01,  1.8542e-01},
   { 1.0974e-01, -2.5537e-01,  1.5967e-01},
   { 1.7075e-02, -1.6748e-01,  1.3391e-01},},
  {{-2.3788e-02,  9.2957e-02, -5.7892e-02},
   {-6.1249e-02, -6.0081e-03,  2.5482e-02},
   {-1.6876e-02, -4.5715e-02,  5.2094e-02},
   { 1.5060e-02, -1.5833e-01,  1.4319e-01},
   { 3.9246e-02, -1.9812e-01,  1.6296e-01},
   { 2.1072e-02, -1.7859e-01,  1.3928e-01},
   {-8.5068e-03, -1.2079e-01,  1.1810e-01},},},
 {{{ 2.5467e-02,  1.5175e-02,  2.5940e-02},
   { 2.0401e-02,  6.7863e-03,  2.0874e-02},
   { 1.7715e-02,  4.8370e-03,  2.0370e-02},
   { 1.0742e-02, -1.7047e-04,  2.0355e-02},
   { 5.6839e-03, -9.7513e-04,  2.0432e-02},
   {-2.4724e-04, -4.2305e-03,  2.2324e-02},
   { 3.6068e-03,  6.1150e-03,  3.0594e-02},},
  {{ 1.8021e-02, -6.0678e-05,  1.0117e-02},
   { 5.6648e-03, -1.4252e-02,  2.6207e-03},
   {-6.2981e-03, -2.3254e-02, -4.1080e-04},
   { 1.4944e-03, -1.2260e-02,  1.5419e-02},
   { 9.5062e-03,  8.2827e-04,  3.0685e-02},
   { 3.3569e-03, -2.3022e-03,  2.8198e-02},
   { 3.2692e-03,  6.9847e-03,  3.6682e-02},},
  {{ 2.0050e-02, -3.9597e-03,  1.6193e-03},
   { 1.7977e-03, -2.4292e-02, -1.0529e-02},
   {-1.1269e-02, -3.4332e-02, -1.6251e-02},
   {-1.3266e-03, -1.9592e-02,  3.9864e-03},
   { 1.2756e-02,  1.8444e-03,  2.9419e-02},
   { 1.1200e-02,  5.9624e-03,  3.6072e-02},
   { 6.6910e-03,  8.1482e-03,  3.6041e-02},},
  {{ 2.4445e-02,  4.0174e-05,  3.6030e-03},
   { 9.5367e-03, -1.8555e-02, -8.5678e-03},
   { 9.8896e-04, -2.4384e-02, -1.1002e-02},
   { 5.8250e-03, -1.4893e-02,  5.9929e-03},
   { 2.2202e-02,  1.0529e-02,  3.7720e-02},
   { 1.8921e-02,  1.4824e-02,  4.6051e-02},
   { 6.1684e-03,  6.8130e-03,  3.7201e-02},},
  {{ 2.3911e-02, -6.0225e-04, -2.4872e-03},
   { 9.8724e-03, -1.8112e-02, -1.3466e-02},
   { 1.1871e-02, -1.4755e-02, -5.4741e-03},
   { 1.4610e-02, -8.7204e-03,  8.9951e-03},
   { 2.1225e-02,  7.4577e-03,  3.1830e-02},
   { 1.3283e-02,  1.0323e-02,  4.0009e-02},
   {-9.9599e-05,  3.3016e-03,  3.4821e-02},},
  {{ 2.7100e-02,  2.6836e-03, -4.5929e-03},
   { 8.2397e-03, -2.1515e-02, -1.9348e-02},
   { 4.9629e-03, -2.4139e-02, -1.6479e-02},
   { 5.9090e-03, -1.9699e-02, -5.3940e-03},
   { 1.8631e-02,  1.8024e-03,  2.4078e-02},
   { 1.7075e-02,  1.0857e-02,  3.8361e-02},
   {-5.9013e-03, -3.8528e-03,  2.4811e-02},},
  {{ 2.2339e-02, -1.1988e-03, -6.0120e-03},
   { 1.0147e-02, -1.5541e-02, -9.7198e-03},
   {-3.9940e-03, -2.9846e-02, -2.0615e-02},
   {-8.2397e-03, -2.9800e-02, -1.5450e-02},
   { 7.7667e-03, -8.3542e-03,  1.2772e-02},
   { 9.0561e-03,  7.5817e-04,  2.7390e-02},
   {-4.6005e-03, -5.8517e-03,  2.2232e-02},},},
 {{{ 2.2278e-02,  7.1754e-03,  7.5912e-03},
   { 4.1565e-02,  1.1642e-02,  2.2919e-02},
   { 4.0070e-02,  1.9730e-02,  5.1941e-02},
   { 1.7365e-02,  7.2403e-03,  5.2521e-02},
   { 2.0950e-02,  1.9348e-02,  4.7150e-02},
   { 2.1896e-02,  1.9989e-02,  1.5404e-02},
   { 1.9226e-02,  1.1322e-02, -1.8234e-02},},
  {{ 1.2573e-02, -6.6643e-03, -1.2146e-02},
   {-7.8552e-02, -1.1401e-01, -4.9805e-02},
   {-1.6162e-01, -1.9226e-01, -7.7393e-02},
   {-1.5100e-01, -1.6809e-01, -5.4626e-02},
   {-6.0974e-02, -6.9763e-02, -5.1231e-03},
   { 2.7771e-02,  2.7084e-03, -9.0714e-03},
   { 2.9556e-02, -1.2306e-02, -6.6711e-02},},
  {{ 4.0588e-02,  3.1799e-02,  4.3030e-02},
   {-9.4116e-02, -1.1078e-01, -3.6194e-02},
   {-1.6431e-01, -1.6687e-01, -5.1453e-02},
   {-1.2903e-01, -1.1578e-01, -2.2324e-02},
   {-2.0157e-02, -5.9242e-03,  2.3422e-02},
   { 3.8361e-02,  3.1403e-02,  1.2531e-03},
   { 3.9124e-02,  2.1545e-02, -4.1656e-02},},
  {{ 1.9623e-02,  2.4460e-02,  4.0649e-02},
   {-1.0300e-02, -1.6891e-02,  1.6602e-02},
   {-7.6866e-03, -2.3232e-03,  3.8269e-02},
   { 3.0457e-02,  4.0405e-02,  6.2500e-02},
   { 5.0568e-02,  6.0455e-02,  4.0222e-02},
   { 2.3483e-02,  1.9485e-02, -2.7405e-02},
   { 2.9510e-02,  1.3939e-02, -5.1178e-02},},
  {{-6.0463e-03,  1.0681e-02,  1.1719e-02},
   { 1.4015e-02,  9.8495e-03, -9.4833e-03},
   { 4.2603e-02,  4.3121e-02,  1.2993e-02},
   { 4.5166e-02,  3.6041e-02, -5.3024e-03},
   { 4.1748e-02,  3.1403e-02, -1.5022e-02},
   { 4.4922e-02,  3.1342e-02, -2.3026e-02},
   { 5.6549e-02,  3.7933e-02, -3.4882e-02},},
  {{-2.9465e-02, -9.8724e-03, -2.0355e-02},
   {-7.8619e-05, -3.8986e-03, -4.3793e-02},
   { 1.9226e-02,  1.9470e-02, -2.7390e-02},
   { 1.9852e-02,  1.9409e-02, -2.6596e-02},
   { 8.6975e-03,  1.0956e-02, -2.7374e-02},
   { 3.1052e-03,  8.7433e-03, -3.0243e-02},
   { 8.8730e-03,  6.0616e-03, -4.6417e-02},},
  {{ 1.7242e-02,  2.4353e-02, -1.2627e-03},
   { 4.1534e-02,  2.5681e-02, -3.3264e-02},
   { 3.0258e-02,  2.6550e-02, -2.9938e-02},
   { 2.5192e-02,  3.2898e-02, -1.4091e-02},
   { 1.4572e-02,  2.9114e-02, -1.0094e-02},
   { 6.3820e-03,  2.5208e-02, -2.1408e-02},
   { 1.4565e-02,  2.3621e-02, -3.0212e-02},},},
 {{{-2.1973e-02, -1.4214e-02,  1.4839e-02},
   { 7.7591e-03, -2.8793e-02,  9.7179e-04},
   {-3.5286e-03, -3.1281e-02, -7.3471e-03},
   { 4.8590e-04, -2.8214e-02, -1.7822e-02},
   { 3.2940e-03, -2.3224e-02, -1.4801e-02},
   {-1.0422e-02, -1.9257e-02,  8.7509e-03},
   {-3.5828e-02, -2.8717e-02,  9.7580e-03},},
  {{ 9.3317e-04, -1.4572e-02,  1.1833e-02},
   { 4.9408e-02, -2.3605e-02, -4.5357e-03},
   { 4.7974e-02, -2.9709e-02, -1.7349e-02},
   { 4.8584e-02, -2.4673e-02, -2.7878e-02},
   { 5.1453e-02, -1.5182e-02, -2.8229e-02},
   { 3.6285e-02, -1.4130e-02,  1.6623e-03},
   { 2.5665e-02, -1.0323e-02,  2.2156e-02},},
  {{-1.1299e-02, -2.6016e-02,  1.2138e-02},
   { 4.9225e-02, -3.9215e-02, -2.4033e-02},
   { 5.0568e-02, -3.7872e-02, -4.5624e-02},
   { 5.6946e-02, -9.3384e-03, -4.0497e-02},
   { 4.3518e-02, -5.9166e-03, -4.0405e-02},
   { 2.7603e-02, -2.3331e-02, -2.5909e-02},
   { 2.5375e-02, -3.4088e-02, -8.6670e-03},},
  {{ 2.2842e-02, -1.7441e-02,  7.1406e-05},
   { 6.8115e-02, -3.5950e-02, -5.6519e-02},
   { 7.9468e-02,  1.4748e-02, -4.5807e-02},
   { 1.0699e-01,  9.8755e-02,  6.3705e-03},
   { 8.3313e-02,  9.1125e-02,  1.1955e-02},
   { 4.8035e-02,  9.7275e-03, -2.7344e-02},
   { 4.2572e-02, -3.8330e-02, -4.1290e-02},},
  {{ 1.3840e-02, -2.3010e-02, -6.1569e-03},
   { 6.7993e-02, -1.6144e-02, -4.3579e-02},
   { 8.2520e-02,  5.5847e-02, -9.1019e-03},
   { 1.6052e-01,  2.2229e-01,  1.3025e-01},
   { 1.5552e-01,  2.3291e-01,  1.4893e-01},
   { 6.4392e-02,  5.4810e-02,  1.0475e-02},
   { 4.9103e-02, -2.9190e-02, -3.7598e-02},},
  {{-9.6130e-03, -3.8147e-02,  5.0278e-03},
   { 3.7415e-02, -3.8666e-02, -2.9709e-02},
   { 2.1896e-02, -2.2003e-02, -4.4678e-02},
   { 6.8115e-02,  7.5378e-02,  2.4796e-02},
   { 6.6956e-02,  8.1909e-02,  3.4485e-02},
   { 2.0645e-02, -1.1078e-02, -2.8122e-02},
   { 3.1921e-02, -4.1290e-02, -2.8992e-02},},
  {{-2.1561e-02, -4.1718e-02,  1.5686e-02},
   { 3.6530e-02, -4.3793e-02, -1.8883e-04},
   { 3.6041e-02, -4.2603e-02, -1.2169e-02},
   { 3.8910e-02, -4.3884e-02, -3.6316e-02},
   { 3.8116e-02, -3.4943e-02, -3.6713e-02},
   { 3.5217e-02, -3.8635e-02, -1.9501e-02},
   { 2.8931e-02, -5.4535e-02, -2.2629e-02},},},
 {{{-1.4771e-02, -3.6659e-03,  2.6989e-03},
   {-2.1896e-02, -2.3422e-03,  6.5460e-03},
   {-4.2305e-03,  1.2703e-02,  8.9722e-03},
   { 3.3051e-02,  2.8458e-02,  2.7008e-02},
   { 2.5925e-02,  2.9938e-02,  7.3357e-03},
   {-6.4331e-02, -7.8003e-02, -8.2214e-02},
   { 4.2694e-02,  4.0619e-02,  5.2155e-02},},
  {{ 8.4229e-03,  8.3084e-03,  7.8354e-03},
   { 2.3544e-02, -1.8129e-03,  1.1208e-02},
   { 2.0504e-03,  3.7746e-03,  8.0490e-03},
   {-1.3184e-01, -1.1694e-01, -1.0913e-01},
   { 4.7569e-03, -7.6294e-03,  5.4230e-02},
   { 1.5869e-01,  1.5771e-01,  1.4404e-01},
   {-1.2695e-01, -1.0333e-01, -1.1481e-01},},
  {{-1.7746e-02, -8.3237e-03, -1.5053e-02},
   { 2.3689e-03, -1.1513e-02, -2.6379e-03},
   { 1.7822e-02,  5.2071e-03, -1.8204e-02},
   { 2.8442e-01,  3.4375e-01,  2.4182e-01},
   {-3.5303e-01, -3.6572e-01, -3.1592e-01},
   { 1.6418e-02, -2.1027e-02,  3.1921e-02},
   { 1.1444e-01,  1.2756e-01,  8.2642e-02},},
  {{-2.8961e-02, -2.2263e-02, -2.4002e-02},
   { 9.6191e-02,  1.0663e-01,  1.1737e-01},
   {-2.8198e-01, -3.4155e-01, -2.3218e-01},
   { 2.2034e-02,  1.5869e-02,  1.8444e-03},
   { 4.7827e-01,  5.9961e-01,  4.2114e-01},
   {-4.0991e-01, -4.1650e-01, -3.6011e-01},
   { 5.3040e-02,  3.2593e-02,  7.0007e-02},},
  {{-4.4098e-03, -5.7364e-04,  9.8419e-04},
   {-3.7292e-02, -1.0178e-02, -6.3171e-02},
   { 3.4302e-01,  3.5254e-01,  3.6084e-01},
   {-5.2783e-01, -6.5869e-01, -4.6582e-01},
   { 1.0419e-01,  1.1182e-01,  5.3925e-02},
   { 2.4902e-01,  3.1152e-01,  2.3669e-01},
   {-1.0132e-01, -1.0181e-01, -7.9651e-02},},
  {{ 6.4453e-02,  6.4148e-02,  6.6467e-02},
   {-1.7017e-01, -1.8225e-01, -1.7859e-01},
   { 6.1951e-02,  1.1658e-01,  2.1378e-02},
   { 2.8320e-01,  2.8125e-01,  2.9199e-01},
   {-3.0005e-01, -3.6035e-01, -2.8394e-01},
   { 4.0771e-02,  4.2603e-02,  2.8168e-02},
   { 1.3908e-02,  1.5518e-02,  5.2567e-03},},
  {{-3.3417e-02, -3.0273e-02, -2.3102e-02},
   { 1.1133e-01,  9.5215e-02,  1.1572e-01},
   {-1.3867e-01, -1.3721e-01, -1.4087e-01},
   {-1.2360e-03,  4.0955e-02,  5.8022e-03},
   { 7.6904e-02,  7.3425e-02,  7.4646e-02},
   {-2.7359e-02, -5.0446e-02, -3.7354e-02},
   {-5.9471e-03,  1.5854e-02,  3.1494e-02},},},
 {{{-1.7563e-02, -8.7585e-03, -2.7939e-02},
   { 7.2632e-03,  2.9892e-02,  1.0185e-02},
   {-1.3885e-02, -4.7760e-03, -5.2547e-04},
   {-4.9469e-02, -3.8208e-02,  3.6530e-02},
   {-9.6497e-02, -1.0345e-01, -5.0232e-02},
   { 5.7755e-03,  1.2779e-02, -3.7746e-03},
   { 3.9978e-02,  7.7454e-02, -3.1643e-03},},
  {{ 9.4223e-03,  2.8091e-02, -1.1169e-02},
   { 4.2633e-02,  8.8562e-02,  4.1870e-02},
   { 1.0666e-02,  2.6810e-02,  3.9429e-02},
   {-8.4229e-02, -1.2524e-01,  4.8208e-04},
   {-1.3184e-01, -1.7456e-01, -8.7952e-02},
   { 7.6843e-02,  8.0505e-02,  4.2480e-02},
   { 6.2500e-02,  1.0413e-01, -2.7294e-03},},
  {{ 7.1983e-03,  5.2155e-02, -1.1299e-02},
   { 9.7839e-02,  1.6223e-01,  8.2397e-02},
   {-8.0795e-03, -1.1292e-02,  1.4648e-02},
   {-1.9128e-01, -2.9443e-01, -9.5886e-02},
   {-1.6125e-01, -2.3779e-01, -1.2732e-01},
   { 1.3489e-01,  1.7554e-01,  8.4473e-02},
   { 9.1064e-02,  1.6638e-01,  1.4923e-02},},
  {{ 8.4534e-03,  6.6406e-02,  9.3307e-03},
   { 1.1725e-01,  1.8457e-01,  1.1591e-01},
   {-4.3579e-02, -9.5276e-02, -7.3051e-04},
   {-2.8369e-01, -4.5483e-01, -1.7798e-01},
   {-1.2939e-01, -2.1826e-01, -9.8389e-02},
   { 1.7261e-01,  2.4207e-01,  1.1639e-01},
   { 1.1554e-01,  2.1130e-01,  3.5828e-02},},
  {{ 8.9874e-03,  6.9580e-02,  2.1744e-02},
   { 8.2092e-02,  1.3928e-01,  1.0492e-01},
   {-5.5634e-02, -1.3574e-01, -2.5421e-02},
   {-2.8442e-01, -4.3457e-01, -1.8506e-01},
   {-7.6599e-02, -1.1591e-01, -3.9917e-02},
   { 1.7566e-01,  2.5684e-01,  1.1462e-01},
   { 1.0864e-01,  2.0776e-01,  2.6505e-02},},
  {{ 1.8768e-02,  5.8228e-02,  1.9226e-02},
   { 6.8298e-02,  8.7097e-02,  7.7332e-02},
   {-6.9092e-02, -1.5088e-01, -5.8289e-02},
   {-1.9568e-01, -3.0640e-01, -1.2585e-01},
   {-1.5854e-02, -2.5925e-02, -9.1248e-03},
   { 1.6003e-01,  2.1838e-01,  8.9600e-02},
   { 8.9905e-02,  1.5344e-01,  1.4236e-02},},
  {{-1.2520e-02,  1.4771e-02, -2.0172e-02},
   {-2.4009e-04,  1.8768e-02,  2.2415e-02},
   {-8.6487e-02, -1.4417e-01, -7.6477e-02},
   {-1.3342e-01, -1.8018e-01, -6.2805e-02},
   {-6.3934e-03, -3.1528e-03, -3.8776e-03},
   { 1.4355e-01,  1.8225e-01,  8.9111e-02},
   { 4.7028e-02,  1.0193e-01,  3.2234e-03},},},
 {{{-8.5373e-03,  4.6730e-03,  1.2810e-02},
   {-6.5689e-03,  1.5564e-02,  2.6489e-02},
   {-5.1819e-02, -1.8814e-02, -1.4496e-03},
   {-6.2500e-02, -5.1605e-02, -5.8044e-02},
   { 5.4718e-02,  4.6661e-02,  2.6794e-02},
   { 4.8767e-02,  3.7689e-02,  1.7334e-02},
   { 1.6052e-02, -2.9373e-03, -7.7553e-03},},
  {{ 1.5419e-02,  1.3056e-03, -1.9791e-02},
   {-5.9433e-03, -1.0025e-02, -2.9053e-02},
   { 7.5745e-02,  6.4514e-02,  1.3268e-02},
   { 2.3450e-01,  1.6345e-01,  1.2842e-01},
   { 4.8706e-02, -2.5604e-02,  2.1790e-02},
   {-1.4734e-01, -1.8262e-01, -1.2988e-01},
   {-4.7028e-02, -4.8096e-02, -4.7791e-02},},
  {{ 1.3519e-02, -2.4384e-02, -1.6891e-02},
   { 4.8859e-02, -4.9210e-03,  7.1220e-03},
   { 5.3772e-02, -3.6041e-02,  1.6052e-02},
   {-2.8320e-01, -4.0356e-01, -2.4194e-01},
   {-3.1885e-01, -3.4253e-01, -2.4780e-01},
   { 3.6499e-02,  9.8572e-02,  6.2164e-02},
   { 1.1737e-01,  1.8762e-01,  1.2891e-01},},
  {{-1.1185e-02, -1.8555e-02, -2.6855e-02},
   {-5.3192e-02, -6.1768e-02, -2.4506e-02},
   {-2.3413e-01, -2.2632e-01, -1.6003e-01},
   {-1.0727e-02,  1.3538e-01,  4.6509e-02},
   { 4.2651e-01,  6.4502e-01,  3.9551e-01},
   { 1.7883e-01,  3.1006e-01,  1.8091e-01},
   {-7.6172e-02, -4.6631e-02, -3.3997e-02},},
  {{ 7.8812e-03,  2.5269e-02,  1.6937e-02},
   { 1.2236e-03,  5.8411e-02,  5.6572e-03},
   { 2.2522e-01,  3.5547e-01,  1.9788e-01},
   { 3.5303e-01,  5.0781e-01,  3.2227e-01},
   {-1.4355e-01, -1.5112e-01, -1.0760e-01},
   {-2.7539e-01, -3.9917e-01, -2.2815e-01},
   {-3.8300e-02, -1.2561e-01, -3.0380e-02},},
  {{-7.1449e-03, -6.3667e-03, -9.4986e-03},
   { 4.5563e-02,  5.8105e-02,  4.5258e-02},
   {-7.9529e-02, -8.9783e-02, -4.4159e-02},
   {-3.6426e-01, -4.6558e-01, -2.7930e-01},
   {-1.9666e-01, -3.2324e-01, -1.2732e-01},
   { 1.3843e-01,  6.9519e-02,  1.2585e-01},
   { 7.2571e-02,  4.5624e-02,  2.4673e-02},},
  {{ 1.1482e-02,  6.0081e-03,  1.8902e-03},
   {-2.7496e-02, -4.1260e-02, -3.0838e-02},
   {-2.0615e-02, -5.4626e-02, -2.7740e-02},
   { 1.2976e-01,  8.4290e-02,  6.9824e-02},
   { 1.5845e-01,  1.4905e-01,  6.9397e-02},
   { 2.1038e-03,  3.0243e-02, -4.3549e-02},
   {-2.2308e-02,  1.5671e-02, -2.9694e-02},},},
 {{{-2.9736e-03, -1.6373e-02, -2.3975e-03},
   { 2.2766e-02,  1.6174e-02,  1.1612e-02},
   { 1.1711e-02,  3.8971e-02,  7.3662e-03},
   { 1.0780e-02,  1.6403e-02, -1.9485e-02},
   {-3.8940e-02, -2.0081e-02, -1.4610e-02},
   {-2.3315e-02, -9.6436e-03, -2.9716e-03},
   { 8.9417e-03, -7.9803e-03,  1.3992e-02},},
  {{-2.1042e-02, -2.9648e-02, -8.3008e-03},
   {-2.1591e-02, -3.6377e-02, -2.2751e-02},
   { 2.5909e-02,  3.2654e-02,  8.2397e-03},
   { 1.5198e-01,  1.6321e-01,  7.8735e-02},
   { 1.0437e-01,  1.4941e-01,  4.8553e-02},
   {-9.7961e-03,  4.9377e-02, -2.1759e-02},
   {-6.7871e-02, -2.1439e-02, -4.0466e-02},},
  {{-1.1617e-04, -2.2297e-03,  1.2367e-02},
   {-7.1838e-02, -9.2651e-02, -3.8727e-02},
   {-2.1802e-01, -2.9663e-01, -1.3000e-01},
   {-1.7004e-01, -3.2471e-01, -1.2122e-01},
   { 9.9426e-02,  8.8882e-03,  7.1899e-02},
   { 2.0190e-01,  2.1191e-01,  1.3745e-01},
   { 7.3547e-02,  1.0870e-01,  4.3365e-02},},
  {{ 5.1575e-02,  6.2561e-02,  3.2410e-02},
   { 1.0883e-01,  1.6626e-01,  6.4941e-02},
   { 5.8441e-02,  1.1884e-01,  6.6528e-02},
   {-2.3206e-01, -3.1543e-01, -1.4185e-01},
   {-4.5654e-01, -6.4844e-01, -3.2959e-01},
   {-2.2595e-01, -3.8916e-01, -1.6284e-01},
   {-3.9185e-02, -1.1517e-01, -1.9287e-02},},
  {{-1.6678e-02, -8.5449e-03, -9.1934e-03},
   { 2.9724e-02,  7.0251e-02, -1.0559e-02},
   { 2.3950e-01,  3.7891e-01,  1.6040e-01},
   { 4.7852e-01,  6.8408e-01,  3.3887e-01},
   { 2.7979e-01,  4.1504e-01,  1.9702e-01},
   {-1.0765e-02, -3.4637e-03, -1.4160e-02},
   {-8.9539e-02, -1.3196e-01, -5.1086e-02},},
  {{-2.4185e-02, -2.2354e-02,  6.6948e-03},
   {-9.2712e-02, -1.3367e-01, -5.8289e-02},
   {-2.1570e-01, -2.4976e-01, -1.6260e-01},
   {-1.2189e-01, -9.4543e-02, -1.2695e-01},
   { 1.1700e-01,  2.3108e-01,  6.8481e-02},
   { 1.6296e-01,  2.7246e-01,  1.1163e-01},
   { 6.9519e-02,  8.0505e-02,  3.5126e-02},},
  {{ 8.2932e-03, -1.1421e-02,  1.0216e-02},
   { 5.6641e-02,  1.8890e-02,  3.8177e-02},
   { 3.7445e-02, -3.5534e-03,  5.3314e-02},
   {-3.9154e-02, -1.3281e-01, -3.1128e-02},
   {-1.1694e-01, -1.7700e-01, -7.1045e-02},
   {-5.4657e-02, -6.1859e-02, -2.2934e-02},
   { 4.0375e-02,  2.1957e-02,  2.5864e-02},},},
 {{{-5.8899e-02, -9.7717e-02, -2.0645e-02},
   {-2.4445e-02, -4.1718e-02,  1.4626e-02},
   {-3.7079e-02, -6.5918e-02, -2.7130e-02},
   {-3.6804e-02, -2.5085e-02, -1.8295e-02},
   {-5.4932e-02, -3.9154e-02, -8.6441e-03},
   {-6.6528e-02, -6.7627e-02, -6.3858e-03},
   {-3.3478e-02, -5.5908e-02,  2.2385e-02},},
  {{-2.5833e-02, -1.1238e-02, -7.7019e-03},
   { 4.6692e-02,  6.6345e-02,  4.6783e-02},
   { 3.5187e-02,  4.8920e-02, -1.8775e-04},
   { 5.2094e-02,  1.0583e-01,  2.6062e-02},
   { 4.1473e-02,  8.5693e-02,  2.2293e-02},
   { 1.5465e-02,  5.0842e-02,  1.4809e-02},
   { 2.5772e-02,  4.7546e-02,  3.4424e-02},},
  {{-5.2910e-03,  1.0269e-02,  4.4289e-03},
   { 7.2876e-02,  9.9915e-02,  5.1361e-02},
   { 7.1533e-02,  1.0742e-01,  2.5085e-02},
   { 8.0994e-02,  1.5747e-01,  3.2654e-02},
   { 7.0129e-02,  1.3159e-01,  1.6190e-02},
   { 4.4403e-02,  8.4351e-02, -4.1809e-03},
   { 6.7078e-02,  1.2195e-01,  5.4352e-02},},
  {{ 2.2537e-02,  4.5746e-02,  1.0414e-02},
   { 9.4727e-02,  1.5735e-01,  5.1270e-02},
   { 9.0088e-02,  1.5747e-01,  2.3605e-02},
   { 8.9600e-02,  1.8994e-01,  2.1191e-03},
   { 7.1228e-02,  1.5222e-01, -1.7014e-02},
   { 8.8379e-02,  1.4392e-01,  2.2469e-03},
   { 8.1238e-02,  1.6846e-01,  3.2318e-02},},
  {{ 1.0597e-02,  1.5251e-02, -5.6801e-03},
   { 9.2529e-02,  1.2457e-01,  2.4811e-02},
   { 4.9469e-02,  9.4116e-02, -1.1360e-02},
   { 2.6672e-02,  1.1096e-01, -2.9999e-02},
   {-1.9882e-02,  5.5756e-02, -8.0261e-02},
   {-7.2861e-03,  5.2246e-02, -6.8298e-02},
   { 9.4986e-03,  1.0297e-01, -2.1683e-02},},
  {{-1.9119e-02, -2.5528e-02,  1.0986e-03},
   { 2.7390e-02,  4.6783e-02, -2.0142e-03},
   { 1.7075e-02,  4.4128e-02, -5.2681e-03},
   {-2.4811e-02,  6.0638e-02, -2.6520e-02},
   {-6.9580e-02,  1.4687e-02, -7.6599e-02},
   {-4.7485e-02,  1.2657e-02, -5.7526e-02},
   {-5.1041e-03,  6.1340e-02, -1.1177e-03},},
  {{-3.8116e-02, -4.0375e-02,  2.7374e-02},
   { 5.3549e-04,  1.4862e-02,  3.1708e-02},
   {-2.3636e-02,  1.9464e-03,  5.4016e-03},
   {-6.8176e-02,  1.6495e-02, -2.4124e-02},
   {-7.5562e-02,  3.6335e-03, -4.1748e-02},
   {-4.3457e-02, -8.3399e-04, -3.7964e-02},
   {-2.3209e-02,  1.5602e-02, -1.1383e-02},},},
 {{{-1.7395e-02, -3.0228e-02, -5.6572e-03},
   {-8.5678e-03, -3.0502e-02,  2.6642e-02},
   {-4.4586e-02, -6.0455e-02,  1.1360e-02},
   {-2.4719e-02, -1.6663e-02,  8.3847e-03},
   { 1.3199e-02,  2.4261e-02,  1.1925e-02},
   { 2.1896e-02,  2.4277e-02, -5.6534e-03},
   { 2.3460e-03, -1.4999e-02, -2.6062e-02},},
  {{-1.9485e-02, -3.8269e-02,  1.4488e-02},
   {-2.4551e-02, -4.6234e-02,  1.4992e-02},
   {-6.1676e-02, -7.5867e-02, -3.9825e-02},
   {-1.3084e-02,  1.0551e-02, -4.4098e-02},
   { 7.4280e-02,  1.1871e-01,  1.1940e-02},
   { 6.2347e-02,  7.6172e-02,  1.4412e-02},
   { 7.2823e-03, -1.0099e-03, -6.3133e-03},},
  {{-6.1157e-02, -7.8369e-02, -2.0752e-02},
   {-3.8696e-02, -5.2460e-02, -2.6840e-02},
   {-5.4657e-02, -1.0887e-02, -6.4880e-02},
   { 1.5186e-01,  2.6465e-01,  4.0985e-02},
   { 2.6221e-01,  3.4595e-01,  1.3416e-01},
   { 5.4321e-02,  4.1199e-02,  2.1591e-03},
   {-5.0842e-02, -9.3262e-02, -4.4037e-02},},
  {{ 1.2550e-02,  3.6255e-02,  2.9709e-02},
   { 6.4331e-02,  1.0474e-01,  2.7115e-02},
   { 1.4685e-01,  2.6416e-01,  6.1096e-02},
   { 3.9136e-01,  5.3955e-01,  2.3706e-01},
   { 1.5588e-01,  1.6223e-01,  9.2285e-02},
   {-1.9141e-01, -3.0444e-01, -1.4392e-01},
   {-1.1938e-01, -2.2144e-01, -6.5735e-02},},
  {{ 4.6783e-02,  4.3793e-02,  4.8995e-05},
   { 7.3853e-02,  8.9783e-02,  5.4092e-03},
   { 1.0388e-01,  1.7017e-01,  3.5370e-02},
   { 4.1473e-02,  4.8279e-02, -8.0566e-03},
   {-3.4082e-01, -4.8926e-01, -2.5830e-01},
   {-2.9321e-01, -4.7144e-01, -1.8396e-01},
   {-1.4420e-02, -8.6670e-02,  2.1088e-02},},
  {{ 5.3040e-02,  2.8915e-02, -1.6281e-02},
   { 3.5370e-02,  7.6637e-03, -2.0111e-02},
   {-2.6764e-02, -3.8239e-02, -3.3844e-02},
   {-1.3953e-01, -2.3132e-01, -1.1389e-01},
   {-2.5269e-01, -3.8062e-01, -1.4954e-01},
   {-2.4612e-02, -5.7281e-02,  3.5553e-02},
   { 1.1182e-01,  1.5808e-01,  1.1578e-01},},
  {{ 6.1302e-03, -1.7944e-02, -1.4565e-02},
   {-2.0477e-02, -3.8422e-02, -1.5900e-02},
   {-5.5603e-02, -5.6152e-02, -1.0941e-02},
   {-6.5796e-02, -8.9050e-02, -9.4147e-03},
   {-2.0279e-02, -3.2135e-02,  3.9001e-02},
   { 9.4055e-02,  1.4648e-01,  1.1346e-01},
   { 4.5227e-02,  1.2390e-01,  5.3864e-02},},},
 {{{-6.1150e-03, -2.0493e-02, -1.3351e-02},
   {-2.6398e-02, -2.8748e-02, -2.2003e-02},
   {-3.4302e-02, -3.8269e-02, -5.8777e-02},
   { 4.5837e-02,  8.0383e-02,  1.8951e-02},
   { 6.5002e-02,  1.2140e-01,  4.3701e-02},
   {-3.2593e-02, -9.5673e-03,  1.6870e-03},
   {-3.6652e-02, -3.0472e-02,  2.2774e-03},},
  {{ 1.2970e-02, -1.0658e-02, -4.4022e-03},
   {-1.8600e-02, -3.2745e-02, -6.7825e-03},
   {-8.2031e-02, -1.3513e-01, -8.5449e-02},
   { 2.9205e-02,  1.8600e-02,  1.1040e-02},
   { 1.1279e-01,  1.9055e-01,  7.8186e-02},
   {-4.0359e-03,  5.0079e-02,  1.3779e-02},
   {-5.2673e-02, -7.7438e-03,  1.0307e-02},},
  {{ 6.7635e-03, -2.1172e-03, -4.7569e-03},
   {-3.8414e-03, -3.3936e-02, -4.3559e-04},
   {-8.0994e-02, -2.0032e-01, -9.7412e-02},
   {-2.7725e-02, -1.0992e-01, -3.8971e-02},
   { 1.7322e-01,  2.3035e-01,  9.3933e-02},
   { 3.3295e-02,  1.2146e-01,  3.5119e-04},
   {-9.6008e-02, -2.5421e-02, -3.0289e-02},},
  {{ 9.2468e-03,  4.2908e-02,  1.7334e-02},
   { 2.1408e-02,  2.0416e-02,  2.4902e-02},
   {-1.1310e-01, -2.5903e-01, -1.2054e-01},
   {-1.6113e-01, -3.6279e-01, -1.5417e-01},
   { 2.2632e-01,  2.1570e-01,  1.1993e-01},
   { 2.0398e-01,  3.1250e-01,  1.0168e-01},
   {-1.4496e-02,  9.2163e-02,  9.7656e-03},},
  {{-3.1799e-02,  4.8676e-02,  1.5732e-02},
   { 5.8289e-02,  1.2915e-01,  8.1177e-02},
   {-3.7018e-02, -1.2268e-01, -3.0212e-02},
   {-3.7964e-01, -6.2402e-01, -2.9736e-01},
   {-3.0579e-02, -1.5527e-01, -6.2561e-02},
   { 2.0337e-01,  2.5879e-01,  1.0773e-01},
   { 3.8513e-02,  1.3379e-01,  7.0343e-03},},
  {{-2.4185e-02,  5.7007e-02,  1.1948e-02},
   { 5.9998e-02,  1.7957e-01,  8.2520e-02},
   { 1.5540e-01,  2.0410e-01,  1.4197e-01},
   {-2.2437e-01, -3.5571e-01, -1.5613e-01},
   {-2.0886e-01, -3.8135e-01, -1.8677e-01},
   { 7.8369e-02,  2.3590e-02,  2.0309e-02},
   { 1.0675e-01,  1.3342e-01,  4.4922e-02},},
  {{-4.1168e-02,  9.4833e-03, -1.0437e-02},
   {-4.4441e-03,  9.4360e-02,  3.5492e-02},
   { 1.3745e-01,  2.2998e-01,  1.1804e-01},
   { 1.4236e-02,  3.5725e-03,  4.9286e-02},
   {-1.2952e-01, -2.2278e-01, -9.6436e-02},
   {-1.0718e-01, -1.6565e-01, -1.0608e-01},
   { 3.1158e-02,  2.7298e-02,  5.2109e-03},},},
 {{{-3.9978e-02,  4.7760e-02, -7.2571e-02},
   {-2.5421e-02,  3.5309e-02, -1.6159e-02},
   {-3.7323e-02,  5.3864e-02, -3.6346e-02},
   {-2.7435e-02,  2.8290e-02, -1.7227e-02},
   {-6.0303e-02,  1.9180e-02, -1.2077e-02},
   {-4.3579e-02,  2.8976e-02, -4.7989e-03},
   {-2.8015e-02,  3.9612e-02, -1.4137e-02},},
  {{-3.9635e-03,  1.9913e-02, -3.8635e-02},
   { 2.1378e-02,  9.3994e-03,  3.1555e-02},
   { 1.0939e-03,  3.1403e-02,  6.8092e-04},
   { 2.5208e-02,  8.8501e-03,  4.1870e-02},
   { 1.7715e-02,  5.8365e-03,  4.7150e-02},
   { 4.5586e-03, -2.7481e-02,  2.9739e-02},
   { 3.9429e-02, -2.5299e-02,  3.6255e-02},},
  {{ 7.9346e-03,  3.4149e-02, -2.9175e-02},
   { 2.3575e-02,  1.2711e-02,  1.9318e-02},
   { 1.3550e-02,  3.3844e-02,  1.5526e-02},
   { 4.1046e-02, -2.0325e-02,  5.2948e-02},
   { 5.8411e-02, -3.0045e-02,  7.2998e-02},
   { 3.4637e-02, -6.2256e-02,  5.2948e-02},
   { 6.1676e-02, -4.0253e-02,  7.4280e-02},},
  {{ 1.2100e-02,  2.7370e-03, -8.7891e-03},
   { 6.5247e-02, -1.8295e-02,  5.1483e-02},
   { 6.5552e-02, -2.9327e-02,  5.2368e-02},
   { 1.0400e-01, -1.1359e-01,  9.7717e-02},
   { 1.1652e-01, -1.5137e-01,  1.1224e-01},
   { 1.2500e-01, -1.5979e-01,  1.0248e-01},
   { 1.1957e-01, -1.3025e-01,  1.4026e-01},},
  {{-1.3227e-03,  1.6418e-02, -6.4278e-03},
   { 5.2399e-02, -2.3788e-02,  5.7434e-02},
   { 6.2012e-02, -6.1951e-02,  6.5796e-02},
   { 1.3464e-01, -1.8091e-01,  9.8083e-02},
   { 1.5747e-01, -2.4084e-01,  9.0698e-02},
   { 1.4209e-01, -2.3584e-01,  7.6111e-02},
   { 1.1121e-01, -1.8408e-01,  1.2756e-01},},
  {{-5.6686e-03,  1.4565e-02, -3.6888e-03},
   { 2.6886e-02, -5.0842e-02,  4.8553e-02},
   { 5.3497e-02, -9.3994e-02,  5.5389e-02},
   { 1.2378e-01, -2.1472e-01,  8.5999e-02},
   { 1.3599e-01, -2.5977e-01,  7.9285e-02},
   { 1.3989e-01, -2.4414e-01,  7.4219e-02},
   { 9.7656e-02, -1.9714e-01,  1.0437e-01},},
  {{-1.1795e-02,  1.1063e-02, -1.7029e-02},
   { 4.4678e-02, -5.3711e-02,  2.7573e-02},
   { 5.9082e-02, -8.7097e-02,  4.7729e-02},
   { 9.4421e-02, -1.9031e-01,  8.6609e-02},
   { 8.5876e-02, -2.1301e-01,  1.0455e-01},
   { 9.4910e-02, -2.0142e-01,  8.7463e-02},
   { 9.2590e-02, -1.5918e-01,  1.0657e-01},},},
 {{{-6.8481e-02, -1.1108e-02, -4.7363e-02},
   { 2.8458e-02,  7.6233e-02,  2.1484e-02},
   { 4.6959e-03,  3.7781e-02,  1.9894e-03},
   { 3.9917e-02,  4.8370e-02,  1.9119e-02},
   {-1.0353e-02, -3.5706e-02,  1.5450e-04},
   {-1.9562e-02, -5.7617e-02,  7.9880e-03},
   {-6.5125e-02, -6.5247e-02,  1.5221e-02},},
  {{ 1.6449e-02,  6.6223e-02,  3.3493e-03},
   { 1.0815e-01,  1.4661e-01,  6.6895e-02},
   { 7.5745e-02,  1.0327e-01,  4.3732e-02},
   { 8.7708e-02,  8.8989e-02,  4.3945e-02},
   {-3.1223e-03, -3.9856e-02, -2.2507e-02},
   {-4.3976e-02, -1.0767e-01, -4.1229e-02},
   {-1.2482e-01, -1.7590e-01, -6.9702e-02},},
  {{ 3.9581e-02,  1.0468e-01,  2.5558e-02},
   { 1.3953e-01,  1.9336e-01,  1.0303e-01},
   { 8.8013e-02,  1.2952e-01,  4.9225e-02},
   { 6.5979e-02,  7.8613e-02,  2.5360e-02},
   {-3.5522e-02, -7.3547e-02, -4.5166e-02},
   {-8.2031e-02, -1.5625e-01, -5.9692e-02},
   {-1.4868e-01, -2.1484e-01, -7.3730e-02},},
  {{ 5.9967e-02,  1.2817e-01,  3.4851e-02},
   { 1.4319e-01,  2.0862e-01,  1.0504e-01},
   { 6.6162e-02,  1.2274e-01,  5.5420e-02},
   { 4.1107e-02,  5.7617e-02,  1.7380e-02},
   {-7.0251e-02, -1.0925e-01, -5.8014e-02},
   {-1.1615e-01, -1.9946e-01, -7.2449e-02},
   {-1.6602e-01, -2.3743e-01, -7.9712e-02},},
  {{ 8.2703e-02,  1.5088e-01,  4.5532e-02},
   { 1.5454e-01,  2.1863e-01,  1.0931e-01},
   { 7.7698e-02,  1.3892e-01,  5.9265e-02},
   { 3.7079e-02,  4.8462e-02,  1.0918e-02},
   {-7.2266e-02, -1.2152e-01, -5.6000e-02},
   {-1.1127e-01, -1.9617e-01, -6.4392e-02},
   {-1.7615e-01, -2.3413e-01, -8.1970e-02},},
  {{ 8.6975e-02,  1.5149e-01,  5.9998e-02},
   { 1.3892e-01,  1.9800e-01,  8.8562e-02},
   { 6.9763e-02,  1.1829e-01,  4.2236e-02},
   { 4.0497e-02,  4.5441e-02,  9.4681e-03},
   {-6.9336e-02, -1.1664e-01, -6.2866e-02},
   {-1.2238e-01, -2.0007e-01, -9.0515e-02},
   {-1.6968e-01, -2.2437e-01, -9.7839e-02},},
  {{ 8.4351e-02,  1.3525e-01,  7.2449e-02},
   { 1.3586e-01,  1.6577e-01,  9.0454e-02},
   { 6.4392e-02,  9.2651e-02,  3.9642e-02},
   { 2.9999e-02,  3.2288e-02, -9.0599e-06},
   {-6.8359e-02, -1.0040e-01, -7.1777e-02},
   {-1.2262e-01, -1.6626e-01, -9.8450e-02},
   {-1.4844e-01, -1.7334e-01, -6.1523e-02},},},
 {{{-1.0971e-02, -7.0992e-03,  2.0416e-02},
   { 5.8556e-03,  1.8875e-02, -2.0767e-02},
   {-7.1594e-02,  2.4414e-02,  4.0771e-02},
   { 2.9831e-02,  2.9663e-02, -5.2856e-02},
   { 9.3872e-02, -1.0597e-02, -8.6426e-02},
   { 1.7136e-02, -7.2937e-02,  5.5542e-02},
   {-1.3086e-01, -9.7168e-02,  2.2302e-01},},
  {{ 8.9874e-03, -8.4352e-04, -9.8114e-03},
   {-9.4757e-03,  3.4973e-02, -2.2217e-02},
   {-1.6272e-01,  3.2715e-02,  1.2512e-01},
   {-7.0862e-02,  4.0131e-02,  4.0039e-02},
   { 1.4722e-01,  2.2247e-02, -1.6345e-01},
   { 2.9199e-01, -2.1027e-02, -2.6367e-01},
   { 1.9409e-01, -6.0883e-02, -1.2323e-01},},
  {{ 3.9856e-02, -1.4442e-02, -1.6907e-02},
   {-3.0914e-02,  6.9199e-03,  1.8311e-02},
   {-3.1348e-01,  3.1147e-03,  3.0029e-01},
   {-3.4155e-01,  9.0790e-03,  3.3057e-01},
   {-7.7087e-02,  3.4729e-02,  3.6469e-02},
   { 3.2617e-01,  3.5736e-02, -3.6938e-01},
   { 4.2480e-01, -1.7319e-02, -4.1333e-01},},
  {{ 1.7188e-01, -2.0752e-02, -1.4575e-01},
   { 1.0907e-01, -1.5762e-02, -8.7341e-02},
   {-3.4058e-01, -9.2697e-03,  3.4692e-01},
   {-5.5273e-01, -1.5221e-03,  5.6055e-01},
   {-3.7305e-01,  2.2812e-02,  3.5278e-01},
   { 9.0393e-02,  5.1788e-02, -1.3318e-01},
   { 3.8452e-01,  1.5898e-03, -3.8281e-01},},
  {{ 2.2546e-01, -9.0027e-03, -2.1924e-01},
   { 3.0518e-01, -5.0392e-03, -2.9785e-01},
   {-9.6802e-02, -4.5090e-03,  9.5215e-02},
   {-4.1113e-01, -1.1246e-02,  4.1724e-01},
   {-4.2310e-01,  1.4107e-02,  4.0649e-01},
   {-1.3831e-01,  4.1443e-02,  8.7036e-02},
   { 1.7700e-01,  1.9882e-02, -1.9592e-01},},
  {{ 1.2042e-01, -1.9165e-02, -9.7412e-02},
   { 3.6353e-01, -1.3054e-02, -3.5815e-01},
   { 1.8909e-01,  1.5917e-03, -1.7700e-01},
   {-5.8533e-02, -9.4223e-03,  6.2622e-02},
   {-2.1033e-01,  2.0142e-02,  1.9958e-01},
   {-1.7749e-01,  3.9093e-02,  1.3330e-01},
   {-7.5102e-05,  3.0823e-02, -2.3376e-02},},
  {{-1.2659e-01, -4.2847e-02,  1.7944e-01},
   { 1.2939e-01, -4.5624e-02, -8.9600e-02},
   { 1.5735e-01, -3.2654e-02, -1.2427e-01},
   { 1.2549e-01, -2.9182e-04, -1.1957e-01},
   {-6.6757e-03,  2.0477e-02, -1.2764e-02},
   {-7.9834e-02,  4.7493e-03,  7.2388e-02},
   {-2.6260e-02,  1.2217e-03,  2.7908e-02},},},
 {{{-8.8692e-04, -1.7529e-03,  6.5002e-02},
   {-4.1382e-02, -8.0078e-02, -2.8793e-02},
   {-6.1798e-03, -4.7119e-02, -2.0447e-02},
   { 5.7068e-03, -2.1194e-02, -3.4637e-02},
   { 4.3976e-02,  7.0068e-02,  6.0387e-03},
   { 1.7273e-02,  9.0881e-02,  8.3618e-03},
   {-1.6907e-02,  8.6914e-02,  3.8452e-03},},
  {{-6.5308e-02, -1.1584e-01, -2.1164e-02},
   {-1.0156e-01, -1.9202e-01, -1.0657e-01},
   {-6.3782e-02, -1.3123e-01, -7.2998e-02},
   {-1.0475e-02, -5.1636e-02, -4.8309e-02},
   { 7.5378e-02,  9.1370e-02,  2.5833e-02},
   { 8.2642e-02,  1.4380e-01,  5.1910e-02},
   { 7.7454e-02,  1.7017e-01,  7.2327e-02},},
  {{-8.1055e-02, -1.2952e-01, -2.8671e-02},
   {-1.1108e-01, -2.0935e-01, -9.3811e-02},
   {-8.5327e-02, -1.5479e-01, -8.9172e-02},
   {-4.0703e-03, -3.0060e-02, -4.0100e-02},
   { 8.7830e-02,  1.0736e-01,  2.9449e-02},
   { 1.1560e-01,  1.8958e-01,  8.5510e-02},
   { 1.4160e-01,  2.4207e-01,  1.3147e-01},},
  {{-8.5449e-02, -1.1609e-01, -5.4016e-03},
   {-1.2793e-01, -2.1960e-01, -8.3984e-02},
   {-1.0889e-01, -1.7688e-01, -7.6233e-02},
   {-2.2675e-02, -3.6072e-02, -3.1921e-02},
   { 8.2703e-02,  1.2830e-01,  4.9042e-02},
   { 1.1597e-01,  1.9470e-01,  7.4463e-02},
   { 1.6345e-01,  2.5684e-01,  1.2659e-01},},
  {{-1.1237e-01, -1.3379e-01, -2.7267e-02},
   {-1.4636e-01, -2.3071e-01, -1.0645e-01},
   {-1.0059e-01, -1.8115e-01, -8.1055e-02},
   { 2.5864e-03, -2.6291e-02, -1.0201e-02},
   { 1.0071e-01,  1.3440e-01,  6.0760e-02},
   { 1.0693e-01,  1.7200e-01,  4.8920e-02},
   { 1.6138e-01,  2.4658e-01,  1.0815e-01},},
  {{-9.1736e-02, -1.0590e-01, -3.3131e-03},
   {-1.5332e-01, -2.2253e-01, -1.0089e-01},
   {-9.9609e-02, -1.6492e-01, -6.9763e-02},
   {-1.7014e-02, -4.5471e-02, -2.5497e-02},
   { 8.5815e-02,  1.0492e-01,  3.7842e-02},
   { 1.1035e-01,  1.6663e-01,  5.5115e-02},
   { 1.4331e-01,  2.1863e-01,  9.7961e-02},},
  {{-5.8197e-02, -6.2408e-02,  3.7567e-02},
   {-1.3770e-01, -1.8457e-01, -7.5195e-02},
   {-8.8074e-02, -1.3806e-01, -6.3538e-02},
   {-1.2299e-02, -3.0960e-02, -2.4872e-02},
   { 6.8298e-02,  9.3628e-02,  2.1835e-02},
   { 9.0515e-02,  1.4307e-01,  5.4504e-02},
   { 1.1218e-01,  1.8005e-01,  7.5623e-02},},},
 {{{-3.6526e-03, -1.2445e-03, -1.4133e-03},
   {-1.8600e-02,  1.7075e-02, -7.3586e-03},
   {-3.2928e-02, -5.1208e-02, -4.2633e-02},
   { 3.8452e-02, -1.7593e-02,  2.5959e-03},
   {-4.4212e-03, -6.2943e-03, -2.0264e-02},
   { 1.0974e-01,  1.3379e-01,  6.7566e-02},
   {-4.7760e-02, -2.8595e-02, -1.7181e-02},},
  {{-6.3438e-03,  5.3253e-03,  4.1580e-03},
   { 1.8021e-02,  5.7098e-02,  5.0354e-03},
   {-3.5522e-02, -7.2632e-02, -2.3987e-02},
   {-6.8726e-02, -1.4917e-01, -4.7241e-02},
   { 7.9529e-02,  1.1243e-01,  4.6143e-02},
   { 1.3293e-01,  1.9788e-01,  1.1005e-01},
   {-1.2311e-01, -1.3989e-01, -4.0131e-02},},
  {{-9.9106e-03,  7.2632e-03,  4.0932e-03},
   { 5.0903e-02,  1.1267e-01,  2.8381e-02},
   {-1.8021e-02, -8.6304e-02, -2.3880e-02},
   {-2.3279e-01, -3.7061e-01, -1.8848e-01},
   { 2.5293e-01,  3.6328e-01,  1.6980e-01},
   { 1.3989e-01,  2.3608e-01,  9.0332e-02},
   {-1.8201e-01, -2.2839e-01, -9.0393e-02},},
  {{-1.5038e-02,  1.6510e-05, -3.2005e-03},
   { 4.1260e-02,  9.7046e-02,  2.4307e-02},
   {-1.4381e-03, -8.9355e-02,  1.3031e-02},
   {-3.6768e-01, -5.5322e-01, -3.0200e-01},
   { 4.0576e-01,  5.8398e-01,  3.1299e-01},
   { 9.9060e-02,  2.1436e-01,  4.6631e-02},
   {-1.9897e-01, -2.8369e-01, -1.1877e-01},},
  {{ 2.0477e-02,  2.0569e-02,  1.6449e-02},
   { 1.8143e-02,  5.8136e-02, -5.4207e-03},
   { 3.1830e-02, -5.3894e-02,  3.9642e-02},
   {-3.3521e-01, -4.8389e-01, -2.6733e-01},
   { 3.9258e-01,  5.7520e-01,  3.2397e-01},
   { 4.2480e-02,  1.5417e-01,  1.2161e-02},
   {-1.5979e-01, -2.2852e-01, -8.8562e-02},},
  {{ 9.4223e-03,  8.1711e-03,  9.4604e-03},
   {-8.6308e-04,  2.8961e-02, -4.2915e-03},
   { 1.3313e-02, -3.4546e-02,  1.6586e-02},
   {-2.0911e-01, -2.9272e-01, -1.6650e-01},
   { 2.1606e-01,  3.1860e-01,  1.7639e-01},
   { 4.2145e-02,  1.0132e-01,  4.8409e-03},
   {-1.1176e-01, -1.6101e-01, -6.9946e-02},},
  {{ 3.9406e-03, -9.7122e-03, -9.4223e-03},
   { 5.1785e-04,  2.8366e-02,  1.0941e-02},
   {-3.3813e-02, -4.7577e-02, -2.1454e-02},
   {-7.0618e-02, -1.0828e-01, -4.8187e-02},
   { 1.0071e-01,  1.4099e-01,  8.8379e-02},
   { 7.9956e-02,  9.8938e-02,  3.9642e-02},
   {-5.0995e-02, -5.6183e-02, -1.3435e-02},},},
 {{{ 1.1963e-02,  1.5617e-02,  6.7673e-03},
   {-1.2619e-02, -2.3773e-02, -1.0109e-02},
   {-1.2016e-02, -1.7258e-02, -2.0828e-03},
   {-1.6937e-02, -1.9150e-02,  8.8425e-03},
   {-7.3586e-03, -8.2092e-03,  6.6109e-03},
   {-1.0475e-02,  5.9967e-03,  1.3557e-02},
   {-3.5877e-03,  2.9316e-03,  5.5466e-03},},
  {{-1.9730e-02,  5.6763e-03, -7.3862e-04},
   {-2.0538e-02, -1.6647e-02, -1.4130e-02},
   {-4.6570e-02, -5.2338e-02, -2.0447e-02},
   {-5.6702e-02, -7.0129e-02, -9.8038e-03},
   {-8.5144e-02, -7.9468e-02, -2.0874e-02},
   {-7.3303e-02, -6.5430e-02, -2.1652e-02},
   {-4.0405e-02, -3.0655e-02, -1.6724e-02},},
  {{ 3.5706e-02,  6.3965e-02,  2.6245e-02},
   { 5.3772e-02,  8.6304e-02,  1.3527e-02},
   { 4.0314e-02,  9.1431e-02, -1.4641e-02},
   { 2.5467e-02,  9.5459e-02, -2.1393e-02},
   { 7.3509e-03,  7.3181e-02, -1.0925e-02},
   { 2.0996e-02,  5.3711e-02, -1.4048e-03},
   { 7.5378e-02,  7.7454e-02,  2.8595e-02},},
  {{ 2.0905e-02,  6.0059e-02,  4.2801e-03},
   { 1.3513e-01,  1.7957e-01,  6.2469e-02},
   { 2.6904e-01,  3.5962e-01,  1.2128e-01},
   { 3.8696e-01,  5.1318e-01,  1.9275e-01},
   { 3.3350e-01,  4.7144e-01,  1.6309e-01},
   { 2.0239e-01,  2.9028e-01,  7.0374e-02},
   { 1.0089e-01,  1.3281e-01,  3.6507e-03},},
  {{-8.3130e-02, -9.8999e-02, -2.8458e-02},
   {-1.3696e-01, -2.0483e-01, -6.8481e-02},
   {-2.2327e-01, -3.3496e-01, -1.3782e-01},
   {-2.6270e-01, -3.9429e-01, -1.6699e-01},
   {-1.7566e-01, -2.5488e-01, -1.0931e-01},
   { 1.3647e-03, -3.3295e-02,  4.7607e-03},
   { 3.7231e-02,  1.6876e-02,  9.8495e-03},},
  {{-6.7444e-02, -8.5754e-02, -3.0182e-02},
   {-1.0400e-01, -1.6602e-01, -5.4688e-02},
   {-1.5527e-01, -2.5317e-01, -6.6772e-02},
   {-2.4011e-01, -3.6035e-01, -9.3689e-02},
   {-2.9980e-01, -4.1431e-01, -1.4343e-01},
   {-2.4219e-01, -3.4058e-01, -1.4001e-01},
   {-1.5894e-01, -2.0459e-01, -9.7168e-02},},
  {{ 3.5187e-02,  7.7087e-02,  1.8692e-02},
   { 9.8877e-02,  1.3000e-01,  4.4250e-02},
   { 1.3135e-01,  1.8250e-01,  5.6915e-02},
   { 1.5820e-01,  2.2229e-01,  1.0553e-01},
   { 1.4233e-01,  2.1277e-01,  1.1469e-01},
   { 1.0754e-01,  1.4001e-01,  8.6548e-02},
   { 3.0212e-03,  3.3386e-02,  4.5242e-03},},},
 {{{ 2.4826e-02,  2.3209e-02, -4.5280e-03},
   {-7.4272e-03,  1.1269e-02,  1.8402e-02},
   {-1.2108e-02,  2.5787e-03,  6.0844e-03},
   {-1.2238e-02,  2.8849e-04,  2.8702e-02},
   { 2.6199e-02,  1.9272e-02,  2.8595e-02},
   {-1.2417e-03, -2.4124e-02, -2.0370e-03},
   {-1.0689e-02, -2.8152e-02, -2.5864e-02},},
  {{ 6.2828e-03,  1.6907e-02,  4.4785e-03},
   {-1.7639e-02,  8.5068e-03, -2.1286e-03},
   {-2.2110e-02,  2.3556e-03, -1.4374e-02},
   {-1.7563e-02,  7.7362e-03,  2.1805e-02},
   { 1.1269e-02,  2.5131e-02,  1.5701e-02},
   {-1.0391e-02, -4.8065e-03,  1.1955e-02},
   {-2.7359e-02, -7.8888e-03,  2.1324e-03},},
  {{-1.1921e-06,  3.4504e-03,  1.0519e-03},
   {-3.4485e-02, -2.0294e-03, -4.5280e-03},
   {-7.4844e-03,  1.8677e-02, -4.1771e-04},
   {-7.9575e-03,  1.8066e-02,  2.0370e-02},
   { 2.2278e-02,  3.4210e-02,  1.9745e-02},
   {-1.9836e-03,  4.5853e-03,  1.1063e-02},
   {-3.6041e-02, -2.1149e-02, -1.4252e-02},},
  {{-1.5236e-02, -1.5106e-02, -5.6915e-03},
   {-3.0228e-02, -3.5152e-03,  2.1660e-04},
   {-1.4603e-02, -6.6185e-03, -2.6443e-02},
   { 4.4586e-02,  5.4504e-02,  4.0863e-02},
   { 1.1072e-01,  1.1877e-01,  9.6741e-02},
   { 7.5317e-02,  7.0557e-02,  7.2510e-02},
   { 3.3302e-03, -1.1200e-02,  9.6893e-03},},
  {{-7.7591e-03, -7.5188e-03,  5.2910e-03},
   {-2.3193e-02,  4.2419e-03, -1.1520e-03},
   {-2.3956e-03,  1.5388e-02, -1.7899e-02},
   { 9.9060e-02,  1.2390e-01,  1.0181e-01},
   { 1.7993e-01,  2.2327e-01,  1.9629e-01},
   { 1.4014e-01,  1.6541e-01,  1.6650e-01},
   { 3.1067e-02,  4.4403e-02,  4.3030e-02},},
  {{-1.4511e-02, -1.7715e-02, -1.1314e-02},
   {-3.9581e-02, -7.1106e-03, -2.5162e-02},
   {-1.3321e-02,  1.5381e-02, -3.0014e-02},
   { 8.7219e-02,  1.3171e-01,  9.6741e-02},
   { 1.5588e-01,  2.0825e-01,  1.6602e-01},
   { 1.0242e-01,  1.4319e-01,  1.1621e-01},
   {-1.6998e-02,  1.2054e-02, -2.3289e-03},},
  {{-2.8839e-03, -8.8501e-03, -9.6436e-03},
   {-1.9897e-02,  3.3226e-03, -3.7689e-03},
   { 4.8637e-03,  3.4485e-02,  9.4147e-03},
   { 5.1422e-02,  8.0872e-02,  6.0486e-02},
   { 7.0801e-02,  9.5581e-02,  5.3284e-02},
   { 2.3361e-02,  4.1260e-02,  1.9318e-02},
   {-3.6957e-02, -8.3237e-03, -1.7578e-02},},},
 {{{-3.8490e-03,  1.1955e-02,  7.8888e-03},
   {-1.2980e-03,  9.8114e-03,  7.1259e-03},
   {-8.2474e-03,  1.2531e-03, -6.1941e-04},
   {-1.0262e-02, -1.7357e-03, -4.5891e-03},
   {-4.9858e-03,  3.6621e-03,  8.5592e-04},
   {-5.1003e-03,  6.0997e-03,  5.9013e-03},
   {-8.3694e-03,  7.1144e-03,  7.3700e-03},},
  {{-8.0414e-03,  5.0011e-03,  3.1967e-03},
   {-1.1810e-02, -4.9305e-04, -1.8139e-03},
   {-1.2871e-02, -3.6316e-03, -2.0008e-03},
   {-1.5221e-02, -5.7793e-03, -2.7256e-03},
   {-9.1019e-03,  2.2411e-03,  4.9934e-03},
   {-4.0550e-03,  1.0262e-02,  1.3756e-02},
   {-8.2016e-03,  9.5444e-03,  1.1124e-02},},
  {{-1.0315e-02, -2.6474e-03, -2.4567e-03},
   {-9.6893e-03, -4.1466e-03, -2.8591e-03},
   {-8.6670e-03, -3.6106e-03, -8.5831e-04},
   {-1.1688e-02, -4.5815e-03, -1.8978e-04},
   {-6.3858e-03,  4.6043e-03,  1.1627e-02},
   {-1.1129e-03,  1.3756e-02,  1.8738e-02},
   {-2.7752e-03,  1.5854e-02,  1.6602e-02},},
  {{-5.1498e-03,  7.0667e-04,  7.1621e-04},
   {-8.5983e-03, -5.6877e-03, -4.0207e-03},
   {-5.0201e-03, -1.9894e-03,  7.8344e-04},
   {-1.2405e-02, -6.0349e-03, -1.7405e-03},
   {-3.5572e-03,  6.6261e-03,  1.3405e-02},
   { 7.7820e-03,  2.3941e-02,  2.8030e-02},
   {-9.6989e-04,  1.8570e-02,  2.1744e-02},},
  {{-1.2688e-02, -9.9564e-03, -1.0834e-02},
   {-1.4236e-02, -1.5991e-02, -1.6342e-02},
   {-1.0086e-02, -1.0208e-02, -8.3237e-03},
   {-1.5976e-02, -1.3161e-02, -1.0735e-02},
   {-1.4336e-02, -8.2855e-03, -5.1117e-03},
   {-5.3673e-03,  5.1384e-03,  8.7814e-03},
   {-6.2256e-03,  8.4839e-03,  1.1139e-02},},
  {{-1.4549e-02, -1.1230e-02, -1.1856e-02},
   {-1.5251e-02, -1.7822e-02, -1.7563e-02},
   {-1.2627e-02, -1.4626e-02, -1.2360e-02},
   {-1.5091e-02, -1.3817e-02, -1.2817e-02},
   {-1.3428e-02, -1.0376e-02, -8.3313e-03},
   {-1.5564e-02, -7.3967e-03, -5.7449e-03},
   {-1.9577e-02, -8.7433e-03, -4.7760e-03},},
  {{-9.2545e-03, -5.1384e-03, -5.5237e-03},
   {-1.2321e-02, -1.1673e-02, -1.1185e-02},
   {-1.2558e-02, -1.1528e-02, -1.1177e-02},
   {-1.7532e-02, -1.4679e-02, -1.5121e-02},
   {-1.2642e-02, -8.8196e-03, -8.9111e-03},
   {-1.6281e-02, -7.8430e-03, -5.7907e-03},
   {-1.8555e-02, -6.4125e-03, -2.2087e-03},},},
 {{{-1.5160e-02, -7.7629e-03,  3.7918e-03},
   {-2.9800e-02, -2.6657e-02,  5.6419e-03},
   {-1.5930e-02, -5.2414e-03, -2.2217e-02},
   {-2.9495e-02, -8.3847e-03, -2.8656e-02},
   {-4.7035e-03,  1.1513e-02, -3.7415e-02},
   { 1.9714e-02,  4.0771e-02, -3.4546e-02},
   { 1.6632e-02,  4.1687e-02,  1.7538e-03},},
  {{-1.6296e-02,  3.9330e-03, -5.2643e-03},
   { 7.4806e-03,  3.3325e-02,  1.3514e-03},
   { 2.7817e-02,  5.5054e-02, -5.0354e-02},
   { 4.4006e-02,  9.7290e-02, -3.6469e-02},
   { 1.0095e-01,  1.5430e-01,  2.4242e-03},
   { 8.9478e-02,  1.4233e-01,  1.7426e-02},
   { 1.3931e-02,  3.9246e-02,  2.1301e-02},},
  {{ 5.7125e-04,  2.5711e-02, -7.1678e-03},
   { 7.3792e-02,  1.1652e-01,  9.8877e-03},
   { 1.9543e-01,  2.3413e-01,  4.7394e-02},
   { 2.5000e-01,  3.0933e-01,  1.3684e-01},
   { 1.9482e-01,  2.2949e-01,  1.5955e-01},
   { 9.1171e-03,  1.8631e-02,  6.2347e-02},
   {-8.4839e-02, -1.0181e-01,  1.5900e-02},},
  {{ 6.9885e-02,  7.3303e-02,  2.5955e-02},
   { 1.0510e-01,  1.0303e-01,  3.7140e-02},
   { 6.2012e-02,  4.1138e-02,  5.4077e-02},
   {-1.4465e-01, -2.1936e-01, -9.6893e-03},
   {-3.3545e-01, -4.7192e-01, -1.2305e-01},
   {-3.1299e-01, -4.2090e-01, -1.2524e-01},
   {-1.5820e-01, -2.1326e-01, -3.3142e-02},},
  {{-2.1317e-02, -5.9418e-02, -4.3335e-03},
   {-1.3708e-01, -2.0056e-01, -4.7943e-02},
   {-3.0566e-01, -4.1455e-01, -1.2067e-01},
   {-4.0430e-01, -5.5127e-01, -1.4380e-01},
   {-2.1057e-01, -3.1982e-01, -3.2104e-02},
   { 1.5282e-02, -2.3895e-02,  6.9580e-02},
   { 3.9520e-02,  4.5319e-02,  3.7323e-02},},
  {{-5.0690e-02, -4.7211e-02,  3.8326e-05},
   {-6.9885e-02, -7.9529e-02,  1.0338e-02},
   {-1.4334e-03, -8.7738e-03,  5.6122e-02},
   { 1.1469e-01,  1.5027e-01,  1.3208e-01},
   { 1.8518e-01,  2.4597e-01,  1.1725e-01},
   { 1.6199e-01,  2.1680e-01,  5.9753e-02},
   { 7.7209e-02,  1.2988e-01,  1.0239e-02},},
  {{-2.9388e-02,  1.8250e-02, -1.5388e-02},
   { 4.0741e-02,  8.3191e-02,  2.4734e-02},
   { 9.5764e-02,  1.4270e-01,  1.0262e-02},
   { 9.7168e-02,  1.5186e-01, -8.6365e-03},
   { 5.8960e-02,  1.0968e-01, -4.1779e-02},
   { 2.7130e-02,  5.1178e-02, -6.7200e-02},
   { 1.7105e-02,  3.8605e-02, -3.2745e-02},},},
 {{{-7.3608e-02,  1.1978e-03, -2.7939e-02},
   {-1.0239e-02,  5.5847e-02,  1.7395e-02},
   { 3.7445e-02,  1.0455e-01,  4.2572e-02},
   { 2.9510e-02,  1.0022e-01,  2.6993e-02},
   { 5.8868e-02,  1.3696e-01,  4.6844e-02},
   { 6.1249e-02,  1.2830e-01,  4.6570e-02},
   { 9.3918e-03,  7.6233e-02,  1.3283e-02},},
  {{ 1.1528e-02,  6.9031e-02,  4.8566e-04},
   { 8.7952e-02,  1.3708e-01,  5.4230e-02},
   { 1.2732e-01,  1.8127e-01,  7.7209e-02},
   { 1.4539e-01,  2.0142e-01,  8.6548e-02},
   { 1.5674e-01,  2.2021e-01,  1.0034e-01},
   { 1.3940e-01,  1.9153e-01,  9.1492e-02},
   { 9.9060e-02,  1.6077e-01,  6.3721e-02},},
  {{ 1.8005e-03,  4.3854e-02, -7.0992e-03},
   { 5.7678e-02,  8.4961e-02,  2.4796e-02},
   { 9.8145e-02,  1.3220e-01,  5.2002e-02},
   { 1.3171e-01,  1.6980e-01,  7.9895e-02},
   { 1.2976e-01,  1.7554e-01,  8.4167e-02},
   { 1.0193e-01,  1.4612e-01,  6.0822e-02},
   { 8.1543e-02,  1.2842e-01,  5.7770e-02},},
  {{ 1.1536e-02,  5.0110e-02,  3.0518e-02},
   { 4.3152e-02,  5.8624e-02,  3.2745e-02},
   { 4.8218e-02,  6.9885e-02,  3.4576e-02},
   { 3.2440e-02,  5.6061e-02,  2.3804e-02},
   { 5.4962e-02,  7.9102e-02,  4.9530e-02},
   { 6.7200e-02,  9.4055e-02,  5.1300e-02},
   { 4.8798e-02,  7.5989e-02,  4.1595e-02},},
  {{-2.7435e-02, -3.1982e-02, -6.3705e-03},
   {-1.4305e-02, -5.2094e-02, -1.6525e-02},
   {-2.7237e-02, -6.1432e-02, -1.4526e-02},
   {-7.1655e-02, -1.1646e-01, -4.6204e-02},
   {-5.4871e-02, -9.8816e-02, -2.5681e-02},
   {-4.5044e-02, -9.3140e-02, -4.4006e-02},
   {-3.4271e-02, -7.4768e-02, -2.8992e-02},},
  {{-2.3254e-02, -5.7556e-02,  5.1079e-03},
   {-5.2643e-02, -1.2231e-01, -3.5248e-02},
   {-7.5378e-02, -1.6089e-01, -5.5878e-02},
   {-1.0358e-01, -2.1143e-01, -8.2214e-02},
   {-8.1116e-02, -2.0129e-01, -4.6417e-02},
   {-7.8003e-02, -1.8347e-01, -6.0211e-02},
   {-9.0454e-02, -1.6736e-01, -5.4657e-02},},
  {{-3.2593e-02, -6.1981e-02,  3.9795e-02},
   {-1.0675e-01, -1.7285e-01, -4.8828e-02},
   {-1.4197e-01, -2.3047e-01, -9.8816e-02},
   {-1.9641e-01, -3.0200e-01, -1.3757e-01},
   {-2.1289e-01, -3.1885e-01, -1.4233e-01},
   {-1.9531e-01, -2.8564e-01, -1.3135e-01},
   {-1.7175e-01, -2.2607e-01, -9.2163e-02},},},
 {{{ 2.2888e-02,  3.9917e-02, -2.0584e-02},
   { 4.7363e-02,  4.4556e-02, -3.6652e-02},
   { 3.6102e-02,  4.3732e-02, -2.8381e-02},
   { 2.0126e-02,  3.3936e-02, -3.3936e-02},
   { 1.0544e-02,  3.4119e-02, -2.4414e-02},
   {-3.6831e-03,  4.2633e-02, -4.1351e-03},
   {-7.1144e-03,  3.7384e-02, -1.0635e-02},},
  {{-2.3785e-03, -1.0231e-02, -6.5674e-02},
   { 4.7211e-02,  1.5762e-02, -7.0007e-02},
   { 5.8624e-02,  3.0746e-02, -4.5227e-02},
   { 5.5481e-02,  3.1525e-02, -4.1077e-02},
   { 3.0365e-02,  1.6830e-02, -5.4199e-02},
   { 2.1896e-02,  2.8076e-02, -4.7760e-02},
   { 3.0228e-02,  3.5492e-02, -4.9988e-02},},
  {{ 2.4128e-03, -4.8828e-03, -3.6011e-02},
   { 5.2528e-03, -2.4399e-02, -6.1035e-02},
   { 1.1101e-02, -1.4915e-02, -3.6346e-02},
   { 2.9282e-02,  3.7880e-03, -1.2741e-02},
   { 2.9846e-02,  6.3210e-03, -2.2339e-02},
   { 2.3514e-02,  1.1635e-02, -3.8574e-02},
   { 3.9215e-02,  2.6520e-02, -4.5288e-02},},
  {{ 5.0873e-02,  3.3813e-02,  3.0541e-04},
   { 1.4257e-03, -3.0823e-02, -4.2664e-02},
   {-1.9348e-02, -4.9744e-02, -3.1860e-02},
   { 4.7565e-04, -3.1586e-02, -1.3245e-02},
   { 4.0253e-02, -3.2163e-04, -2.9221e-03},
   { 6.0242e-02,  1.8784e-02, -2.1881e-02},
   { 7.3608e-02,  2.5375e-02, -5.8075e-02},},
  {{ 2.4323e-02,  2.1057e-02,  2.9221e-03},
   {-5.5023e-02, -7.2266e-02, -3.8544e-02},
   {-9.1553e-02, -1.0394e-01, -2.9617e-02},
   {-8.0750e-02, -9.5337e-02, -1.6556e-02},
   {-5.5847e-02, -7.5928e-02, -1.7776e-02},
   {-3.7880e-03, -3.4546e-02, -2.7954e-02},
   { 5.2521e-02,  9.2697e-03, -5.1025e-02},},
  {{ 1.3123e-02,  1.9791e-02,  8.2932e-03},
   {-4.8004e-02, -4.8584e-02, -1.7303e-02},
   {-9.9609e-02, -9.5032e-02, -9.9335e-03},
   {-1.0065e-01, -1.0168e-01,  1.8716e-05},
   {-8.2642e-02, -9.0637e-02,  5.4932e-04},
   {-4.0863e-02, -5.4871e-02, -1.0574e-02},
   { 4.0771e-02,  7.4043e-03, -2.5208e-02},},
  {{ 3.4912e-02,  2.9510e-02,  1.3069e-02},
   { 3.7903e-02,  2.4887e-02,  1.5564e-02},
   {-1.1673e-02, -1.5167e-02,  2.6703e-02},
   {-4.0405e-02, -4.2603e-02,  2.2156e-02},
   {-4.0588e-02, -4.2664e-02,  2.2507e-02},
   {-1.8921e-02, -2.0599e-02,  9.7275e-03},
   { 5.0354e-02,  2.5635e-02, -9.9945e-03},},},
 {{{ 3.5787e-04,  2.8553e-03, -1.0742e-02},
   {-3.6602e-03, -3.7270e-03, -1.0956e-02},
   { 3.6163e-03,  2.8458e-03, -5.3291e-03},
   { 3.1738e-03, -5.5170e-04, -9.5139e-03},
   { 5.7030e-04, -4.4022e-03, -1.6541e-02},
   { 3.1147e-03,  7.4720e-04, -1.2245e-02},
   { 2.3532e-04,  1.8473e-03, -8.4915e-03},},
  {{ 2.2373e-03,  5.7182e-03, -3.8314e-04},
   { 4.5776e-03,  7.6828e-03,  9.6664e-03},
   { 2.2793e-03,  1.9464e-03,  7.1297e-03},
   { 1.4937e-04, -4.3297e-03,  1.9779e-03},
   {-6.9122e-03, -9.0256e-03, -6.6185e-03},
   { 1.6928e-03,  5.4970e-03,  5.1537e-03},
   {-1.7347e-03,  6.9733e-03,  5.9052e-03},},
  {{-2.7962e-03, -3.7327e-03, -5.2452e-03},
   {-3.9749e-03, -4.0359e-03,  2.0199e-03},
   {-5.3825e-03, -1.1742e-02,  2.5024e-03},
   {-8.7738e-03, -1.9775e-02, -1.4639e-03},
   {-7.4997e-03, -1.7380e-02, -4.0016e-03},
   {-1.3409e-03, -2.7981e-03,  4.1084e-03},
   {-6.9275e-03, -1.3065e-03,  2.3937e-03},},
  {{-2.2869e-03,  9.4235e-05, -4.2648e-03},
   {-1.2047e-02, -1.0536e-02, -8.0490e-03},
   { 2.0580e-03,  5.1200e-05,  9.0942e-03},
   { 1.8707e-02,  1.5808e-02,  2.7771e-02},
   {-4.9553e-03, -1.1162e-02, -5.8317e-04},
   {-1.2878e-02, -1.2085e-02, -1.3227e-03},
   {-1.5640e-02, -7.6447e-03, -1.8034e-03},},
  {{-2.4166e-03,  2.9354e-03, -5.2834e-03},
   {-1.0902e-02, -4.5815e-03, -7.9651e-03},
   { 3.0228e-02,  3.7567e-02,  3.5461e-02},
   { 9.0454e-02,  1.0260e-01,  9.7717e-02},
   { 3.8177e-02,  4.6326e-02,  4.7607e-02},
   {-1.3199e-02, -6.8893e-03,  2.2125e-03},
   {-1.4503e-02, -3.3760e-03,  1.2312e-03},},
  {{-1.1950e-03,  8.2779e-03, -4.5433e-03},
   {-1.4267e-02, -1.8177e-03, -1.0513e-02},
   {-2.4090e-03,  6.4392e-03, -4.8599e-03},
   { 2.6764e-02,  3.7567e-02,  2.3026e-02},
   { 2.4796e-03,  1.0719e-02,  3.5172e-03},
   {-2.3361e-02, -1.3008e-02, -1.3237e-02},
   {-1.1894e-02,  4.4937e-03,  2.4471e-03},},
  {{-3.8280e-03,  7.6027e-03, -9.5139e-03},
   {-1.2917e-02,  3.5057e-03, -9.8419e-03},
   {-1.7151e-02, -5.0964e-03, -2.1347e-02},
   {-1.5533e-02, -4.3297e-03, -2.2583e-02},
   {-1.4893e-02, -4.4632e-03, -1.9302e-02},
   {-1.1742e-02,  3.2616e-03, -4.2725e-03},
   {-1.6785e-02,  3.0575e-03, -4.7073e-03},},},
 {{{-1.2505e-02, -5.4970e-03, -3.3630e-02},
   { 1.9436e-03,  4.3335e-02,  4.8332e-03},
   { 5.5908e-02,  1.1475e-01,  6.5125e-02},
   {-7.6256e-03, -8.2855e-03,  2.8381e-02},
   {-5.5237e-02, -1.0864e-01, -3.5278e-02},
   {-1.6418e-02, -5.2063e-02, -2.6428e-02},
   { 4.2877e-02,  2.7420e-02,  3.8795e-03},},
  {{-2.4719e-02, -8.9722e-03, -3.5156e-02},
   { 5.1453e-02,  8.3313e-02,  3.6774e-02},
   { 5.7068e-02,  7.0679e-02,  6.6467e-02},
   {-1.2695e-01, -2.0935e-01, -5.7556e-02},
   {-1.4697e-01, -2.4487e-01, -1.0687e-01},
   { 4.2084e-02,  2.0386e-02,  7.9956e-03},
   { 5.0232e-02,  5.9326e-02,  1.5480e-02},},
  {{ 3.0731e-02,  7.2937e-02,  3.6774e-02},
   { 7.0740e-02,  9.5642e-02,  7.7393e-02},
   {-4.5502e-02, -1.0828e-01,  4.4098e-03},
   {-2.9175e-01, -4.4214e-01, -2.0776e-01},
   {-4.3274e-02, -9.7412e-02, -6.3232e-02},
   { 1.9092e-01,  2.4841e-01,  9.3445e-02},
   { 3.1036e-02,  9.3323e-02,  1.8356e-02},},
  {{ 4.0009e-02,  5.0598e-02,  5.5054e-02},
   {-2.0111e-02, -6.3477e-02,  1.4946e-02},
   {-2.4255e-01, -3.8184e-01, -1.6907e-01},
   {-1.9312e-01, -2.9565e-01, -1.7310e-01},
   { 3.3447e-01,  4.0356e-01,  1.7566e-01},
   { 2.5610e-01,  3.5693e-01,  1.1890e-01},
   {-4.5929e-02, -1.6296e-02, -4.0283e-02},},
  {{-3.4698e-02, -6.0791e-02, -8.2016e-03},
   {-9.4482e-02, -1.6943e-01, -5.4077e-02},
   {-1.4490e-01, -2.2156e-01, -1.3367e-01},
   { 1.9104e-01,  2.2510e-01,  7.2815e-02},
   { 3.7500e-01,  5.0977e-01,  1.8225e-01},
   { 2.6245e-02,  8.8867e-02, -1.9302e-02},
   {-1.6748e-01, -1.6699e-01, -7.4280e-02},},
  {{-1.8219e-02, -3.7476e-02, -1.2390e-02},
   {-1.2077e-02, -4.3060e-02, -1.9882e-02},
   { 8.0811e-02,  6.5063e-02, -1.4534e-02},
   { 2.4658e-01,  3.0640e-01,  1.0071e-01},
   { 6.8909e-02,  1.3708e-01,  4.7646e-03},
   {-1.4612e-01, -1.3013e-01, -5.6091e-02},
   {-1.1108e-01, -1.2561e-01,  1.9745e-02},},
  {{ 3.0609e-02,  1.2589e-02, -1.0674e-02},
   { 2.7542e-02,  1.6632e-02, -1.1032e-02},
   { 5.3711e-02,  7.4280e-02,  4.7493e-03},
   { 5.8960e-02,  9.3567e-02,  1.5961e-02},
   {-8.4167e-02, -5.7068e-02, -3.1250e-02},
   {-1.2622e-01, -1.0846e-01,  2.4939e-04},
   {-2.8381e-02, -3.9978e-02,  6.0242e-02},},},
 {{{ 1.5020e-03, -5.7554e-04, -2.8944e-04},
   { 9.1553e-03, -7.0686e-03,  9.4757e-03},
   {-2.6932e-03, -1.9058e-02, -4.0321e-03},
   { 3.1281e-02,  9.6970e-03,  2.0508e-02},
   { 2.3209e-02, -7.6294e-03,  1.9501e-02},
   { 5.3635e-03, -1.7532e-02,  6.4049e-03},
   { 1.6388e-02,  3.8052e-03,  2.0561e-03},},
  {{ 2.2095e-02,  3.6659e-03, -2.7027e-03},
   { 2.7512e-02,  1.7047e-05, -9.9468e-04},
   { 1.6998e-02, -9.3460e-03, -2.0390e-03},
   { 5.3223e-02,  1.2665e-02,  3.3783e-02},
   { 4.1565e-02, -4.0016e-03,  3.6530e-02},
   { 2.9877e-02, -1.5572e-02,  6.6147e-03},
   { 1.9653e-02, -1.6022e-02, -2.2751e-02},},
  {{ 1.9236e-03, -1.3489e-02, -1.9821e-02},
   { 4.2816e-02,  1.2398e-02,  3.1338e-03},
   { 1.2016e-02, -6.3667e-03,  1.4313e-02},
   {-5.1117e-02, -7.4829e-02, -2.5425e-03},
   {-5.9174e-02, -8.5449e-02,  5.3215e-03},
   { 1.5480e-02, -1.4696e-03,  3.6469e-02},
   { 3.1067e-02,  1.0841e-02, -1.8015e-03},},
  {{ 3.8177e-02,  8.1329e-03, -1.5747e-02},
   { 6.2866e-02,  2.7420e-02,  2.3468e-02},
   {-4.1412e-02, -5.2612e-02, -9.7427e-03},
   {-2.3804e-01, -2.6367e-01, -1.3086e-01},
   {-2.6294e-01, -2.8320e-01, -1.2018e-01},
   {-6.7566e-02, -6.1035e-02,  8.0795e-03},
   { 5.4443e-02,  4.2450e-02,  3.7933e-02},},
  {{ 2.1927e-02, -4.2877e-03, -1.2978e-02},
   { 3.7903e-02,  2.1408e-02,  1.3977e-02},
   {-1.6037e-02, -7.6981e-03,  4.4632e-03},
   {-1.3416e-01, -1.2903e-01, -5.3406e-02},
   {-1.8091e-01, -1.6357e-01, -7.2144e-02},
   {-4.1748e-02, -6.5689e-03,  2.2934e-02},
   { 2.5223e-02,  3.4760e-02,  1.5289e-02},},
  {{-5.9700e-03, -1.0948e-02, -2.2751e-02},
   { 2.2354e-02,  6.4201e-03, -1.6928e-03},
   { 1.1353e-02,  1.5732e-02,  8.4839e-03},
   {-4.1618e-03,  7.5436e-04,  8.1482e-03},
   {-2.5085e-02, -6.1646e-03,  1.3420e-02},
   {-1.6983e-02,  1.3573e-02,  2.2369e-02},
   {-8.0643e-03, -2.5234e-03, -9.4604e-03},},
  {{ 2.2430e-02,  7.5188e-03, -1.2589e-02},
   { 1.6647e-02, -2.9449e-03, -1.9760e-02},
   { 1.7090e-02,  2.8300e-04, -2.1317e-02},
   { 5.0476e-02,  1.9653e-02, -9.2621e-03},
   { 4.4617e-02,  2.6855e-02,  9.2773e-03},
   { 9.3536e-03,  8.7814e-03,  5.3596e-03},
   { 7.8888e-03,  2.1019e-03, -4.4708e-03},},},
 {{{-3.3386e-02, -4.4899e-03, -1.0994e-02},
   {-3.8490e-03, -4.9162e-04, -4.8866e-03},
   {-1.5106e-03, -1.7996e-03,  1.0826e-02},
   { 2.8168e-02,  5.7800e-02,  4.3365e-02},
   { 5.4077e-02,  1.1792e-01,  6.7139e-02},
   { 5.5237e-02,  1.3538e-01,  5.1819e-02},
   { 9.2834e-02,  1.4893e-01,  6.2866e-02},},
  {{-6.7902e-03, -5.0735e-03, -1.8143e-02},
   {-3.5858e-02, -6.0303e-02, -3.1372e-02},
   {-1.1481e-01, -1.6516e-01, -6.2042e-02},
   {-1.0895e-01, -1.4758e-01, -4.3060e-02},
   {-1.5717e-02, -2.9724e-02,  2.4033e-02},
   { 3.7659e-02,  6.9275e-02,  3.4698e-02},
   { 9.5642e-02,  1.3989e-01,  8.2397e-02},},
  {{ 2.6047e-02,  2.6138e-02,  7.8917e-04},
   { 2.0981e-02,  3.2349e-03, -1.2596e-02},
   {-9.9976e-02, -1.7065e-01, -8.9478e-02},
   {-2.2534e-01, -3.4766e-01, -1.6736e-01},
   {-1.9519e-01, -3.2080e-01, -1.1420e-01},
   {-8.5938e-02, -1.5601e-01, -5.1544e-02},
   { 4.8889e-02,  4.0344e-02,  5.0812e-02},},
  {{ 3.3905e-02,  3.9551e-02,  8.5678e-03},
   { 8.1238e-02,  8.4778e-02,  1.2161e-02},
   { 2.3987e-02, -5.2261e-03, -1.6464e-02},
   {-1.3086e-01, -2.0801e-01, -1.0663e-01},
   {-2.4255e-01, -3.7573e-01, -1.7468e-01},
   {-2.0081e-01, -3.2837e-01, -1.2537e-01},
   {-1.1481e-01, -1.6797e-01, -5.0690e-02},},
  {{ 5.3619e-02,  8.0750e-02,  3.5828e-02},
   { 1.5015e-01,  2.0459e-01,  7.1899e-02},
   { 1.4636e-01,  2.0239e-01,  5.7709e-02},
   { 7.3669e-02,  1.1383e-01,  1.7670e-02},
   {-3.1799e-02, -5.2124e-02, -3.7262e-02},
   {-1.0016e-01, -1.5601e-01, -6.6528e-02},
   {-1.2122e-01, -1.5698e-01, -6.8298e-02},},
  {{-2.0950e-02,  1.2863e-02,  2.0935e-02},
   { 1.3220e-01,  1.8152e-01,  9.9915e-02},
   { 1.8127e-01,  2.4780e-01,  1.1499e-01},
   { 1.4648e-01,  2.2156e-01,  7.7942e-02},
   { 7.4585e-02,  1.1847e-01,  4.4556e-02},
   { 1.7395e-02,  3.0594e-02,  1.1322e-02},
   {-7.6233e-02, -8.1482e-02, -4.9805e-02},},
  {{-1.4270e-01, -1.2927e-01, -8.7463e-02},
   {-3.0396e-02, -8.2245e-03, -2.4673e-02},
   { 5.0537e-02,  1.0040e-01,  3.6102e-02},
   { 9.8938e-02,  1.6064e-01,  6.0272e-02},
   { 5.2490e-02,  9.4971e-02,  2.0798e-02},
   { 7.3730e-02,  1.0895e-01,  4.0436e-02},
   {-3.8261e-03,  3.6469e-02,  7.9117e-03},},},
 {{{ 6.7902e-04, -3.8853e-03,  7.7744e-03},
   { 1.5621e-03, -3.4213e-04,  1.4290e-02},
   {-2.4414e-03, -2.9736e-03,  1.4961e-02},
   {-2.5616e-03, -1.7109e-03,  1.7014e-02},
   {-4.7836e-03, -3.0231e-03,  1.4908e-02},
   {-8.5220e-03, -5.1231e-03,  1.1688e-02},
   {-1.6052e-02, -1.4275e-02, -9.5189e-05},},
  {{-1.3485e-03, -1.3275e-03,  8.5449e-03},
   { 3.7251e-03,  7.6599e-03,  2.3148e-02},
   { 7.5569e-03,  1.2024e-02,  2.9861e-02},
   { 4.8790e-03,  1.0460e-02,  2.8946e-02},
   {-8.2092e-03, -5.1041e-03,  1.3924e-02},
   {-1.3771e-02, -1.0544e-02,  5.7564e-03},
   {-2.0325e-02, -1.8478e-02, -5.5313e-03},},
  {{-7.8201e-03, -6.7444e-03,  2.4433e-03},
   {-4.3178e-04,  5.8250e-03,  1.9211e-02},
   { 1.1932e-02,  1.9470e-02,  3.5034e-02},
   { 8.9569e-03,  1.5358e-02,  3.1433e-02},
   {-1.2085e-02, -1.0689e-02,  6.1150e-03},
   {-1.7593e-02, -1.9028e-02, -2.9316e-03},
   {-2.3224e-02, -2.4628e-02, -1.3496e-02},},
  {{-1.2505e-02, -8.8272e-03,  1.6270e-03},
   {-4.9248e-03,  2.6512e-03,  1.5175e-02},
   { 8.4991e-03,  1.5541e-02,  2.6489e-02},
   { 8.4076e-03,  1.3489e-02,  2.4429e-02},
   {-1.1772e-02, -1.3115e-02, -1.5144e-03},
   {-1.6891e-02, -1.9958e-02, -1.0117e-02},
   {-1.8158e-02, -2.0615e-02, -1.3733e-02},},
  {{-1.4427e-02, -9.8343e-03, -2.7332e-03},
   {-1.4259e-02, -8.3771e-03,  9.5797e-04},
   {-3.4738e-04,  4.1275e-03,  1.0941e-02},
   { 7.8964e-03,  1.0429e-02,  1.6663e-02},
   {-6.6948e-03, -1.0445e-02, -3.2196e-03},
   {-1.1665e-02, -1.6449e-02, -9.6207e-03},
   {-9.6893e-03, -1.4481e-02, -1.0551e-02},},
  {{-1.0208e-02, -7.0915e-03, -8.3685e-05},
   {-1.2421e-02, -8.5983e-03,  4.2605e-04},
   {-7.0229e-03, -3.9482e-03,  3.2558e-03},
   {-1.6804e-03, -4.9067e-04,  5.4398e-03},
   {-1.6617e-02, -2.0020e-02, -1.4214e-02},
   {-1.5884e-02, -1.9730e-02, -1.5297e-02},
   {-1.2878e-02, -1.7960e-02, -1.6769e-02},},
  {{-7.6103e-03, -1.1511e-03,  7.2021e-03},
   {-7.8812e-03, -2.2087e-03,  5.6419e-03},
   {-8.0490e-03, -4.7112e-03,  2.4567e-03},
   {-8.2016e-03, -5.7907e-03,  6.8998e-04},
   {-1.6891e-02, -1.9012e-02, -1.4587e-02},
   {-1.8127e-02, -1.9562e-02, -1.6556e-02},
   {-1.7548e-02, -1.9684e-02, -2.0844e-02},},},
 {{{ 4.0466e-02,  1.9913e-03, -2.3804e-02},
   { 9.3155e-03, -3.5004e-02, -7.8278e-03},
   {-2.7481e-02, -5.7840e-04,  1.7334e-02},
   {-1.0071e-02,  6.9519e-02,  4.5380e-02},
   {-1.8219e-02,  5.9700e-03,  1.8415e-03},
   { 8.8787e-04, -3.5919e-02, -2.6520e-02},
   { 5.4840e-02, -1.3107e-02, -2.7191e-02},},
  {{ 2.0920e-02, -6.3210e-03, -3.0701e-02},
   { 9.2697e-03, -1.0048e-02,  3.7750e-02},
   {-4.5197e-02, -1.8311e-02,  2.4414e-02},
   {-7.4158e-02, -1.6602e-02, -5.2002e-02},
   { 4.9011e-02,  4.5868e-02,  1.5900e-02},
   { 5.4260e-02, -2.3209e-02,  3.4618e-03},
   { 1.9379e-02, -1.9089e-02, -2.7420e-02},},
  {{ 2.4124e-02,  2.6779e-02,  1.6739e-02},
   {-4.1595e-02, -2.8778e-02,  4.5105e-02},
   {-2.1423e-01, -1.4001e-01, -1.1914e-01},
   { 2.0898e-01,  3.2104e-01,  1.2854e-01},
   { 1.5015e-01,  8.7830e-02,  7.1411e-02},
   {-1.3330e-01, -2.4353e-01, -1.5247e-01},
   { 1.0689e-02,  3.3264e-02,  3.4027e-02},},
  {{ 2.5024e-02,  4.4586e-02,  2.5024e-02},
   {-1.7822e-01, -1.5552e-01, -1.0400e-01},
   { 1.2537e-01,  2.2351e-01,  4.7791e-02},
   { 4.4434e-01,  4.4678e-01,  2.6489e-01},
   {-3.9038e-01, -6.5283e-01, -3.8013e-01},
   {-8.0643e-03, -8.6548e-02, -1.3763e-02},
   { 8.9539e-02,  1.7908e-01,  9.7046e-02},},
  {{-6.3965e-02, -2.3499e-02, -1.4244e-02},
   {-3.5858e-02, -2.8381e-03, -1.5854e-02},
   { 3.2324e-01,  3.5303e-01,  2.1252e-01},
   {-2.0715e-01, -4.2285e-01, -2.4182e-01},
   {-2.9175e-01, -5.2441e-01, -2.4646e-01},
   { 3.9380e-01,  4.8267e-01,  3.3984e-01},
   {-1.0767e-01,  1.3634e-02, -5.9845e-02},},
  {{-3.0212e-02,  2.8915e-03,  1.1765e-02},
   { 7.5623e-02,  7.7209e-02,  6.0883e-02},
   {-1.2337e-02, -7.6233e-02, -5.3955e-02},
   {-1.9312e-01, -3.6060e-01, -2.0544e-01},
   { 2.4377e-01,  2.6123e-01,  2.2546e-01},
   { 8.0811e-02,  2.2339e-01,  7.4585e-02},
   {-1.5820e-01, -9.8877e-02, -7.3303e-02},},
  {{ 2.7466e-02, -2.9430e-03, -1.4191e-02},
   { 2.4109e-02, -2.8656e-02, -1.3725e-02},
   {-1.3885e-03, -7.3547e-02, -6.5857e-02},
   { 7.1228e-02,  3.9368e-02,  3.3844e-02},
   { 6.2141e-03,  1.0651e-01,  4.4617e-02},
   {-1.0907e-01, -2.4338e-02, -3.2684e-02},
   {-2.1896e-02, -1.9638e-02,  3.4760e-02},},},
 {{{-1.7929e-03,  4.1237e-03,  1.9627e-03},
   { 2.4281e-03,  1.0086e-02, -1.9627e-03},
   { 3.9697e-05,  4.6692e-03, -7.6790e-03},
   {-2.0733e-03,  3.8385e-05, -1.3794e-02},
   {-2.4052e-03, -2.9850e-03, -1.6693e-02},
   {-4.0092e-03, -1.9236e-03, -1.0170e-02},
   { 1.3676e-03,  1.6136e-03, -5.9662e-03},},
  {{ 1.4439e-03,  1.0582e-02,  6.4240e-03},
   { 3.1528e-03,  1.5015e-02,  1.2846e-03},
   {-8.2169e-03,  4.8294e-03, -1.2260e-02},
   {-7.6790e-03,  1.2283e-03, -2.1835e-02},
   {-6.0616e-03,  1.5030e-03, -2.3773e-02},
   {-7.2479e-03,  1.4439e-03, -1.5388e-02},
   {-1.2360e-03,  6.7978e-03, -9.4604e-03},},
  {{ 5.7983e-04,  7.7744e-03,  4.3030e-03},
   { 7.8735e-03,  2.1378e-02,  1.0109e-02},
   { 1.7834e-03,  1.5419e-02,  4.9057e-03},
   {-2.3804e-03,  6.0616e-03, -1.4709e-02},
   { 1.9894e-03,  9.3536e-03, -1.8967e-02},
   {-4.8790e-03,  4.1771e-03, -1.8799e-02},
   { 3.7594e-03,  1.4107e-02, -5.4207e-03},},
  {{ 7.0152e-03,  1.0658e-02,  8.3923e-03},
   { 6.5079e-03,  1.7120e-02,  5.1727e-03},
   {-5.2299e-03,  6.9542e-03, -3.9940e-03},
   {-2.7054e-02, -1.8768e-02, -3.3234e-02},
   {-2.3346e-02, -1.8036e-02, -3.8361e-02},
   {-2.8419e-03,  5.0011e-03, -1.6205e-02},
   { 9.1600e-04,  1.1955e-02, -1.3229e-02},},
  {{-3.1872e-03,  2.6760e-03,  1.9817e-03},
   {-1.0328e-03,  8.5068e-03,  2.3613e-03},
   {-1.3321e-02, -1.9989e-03,  1.5965e-03},
   {-4.4975e-03,  1.1925e-02,  1.5213e-02},
   {-1.3496e-02, -6.2418e-04, -7.1049e-04},
   {-1.6327e-02, -4.8065e-03, -1.4565e-02},
   {-5.9357e-03,  6.7978e-03, -1.7029e-02},},
  {{-6.7635e-03,  1.2836e-03, -2.8820e-03},
   {-1.2375e-02, -1.4362e-03, -8.3542e-03},
   {-1.0895e-02,  4.2152e-03,  9.5978e-03},
   { 5.7709e-02,  8.5266e-02,  9.2163e-02},
   { 5.5969e-02,  8.2153e-02,  8.4778e-02},
   {-1.3451e-02,  7.4196e-03, -1.9236e-03},
   {-2.0584e-02, -1.6146e-03, -2.6703e-02},},
  {{-1.5076e-02, -7.1030e-03, -1.0757e-02},
   {-1.8860e-02, -8.5449e-03, -1.6663e-02},
   {-2.8137e-02, -1.4839e-02, -1.9531e-02},
   { 1.0857e-02,  3.1128e-02,  2.6535e-02},
   { 8.9722e-03,  3.2166e-02,  2.6093e-02},
   {-2.0050e-02, -8.4114e-04, -8.9493e-03},
   {-1.4763e-02,  4.3030e-03, -1.5991e-02},},},
 {{{ 1.3138e-02, -5.5298e-02,  4.6906e-02},
   { 1.6479e-02, -3.7537e-02,  8.1177e-03},
   { 3.5583e-02, -2.3651e-02,  9.9087e-04},
   {-6.8398e-03,  1.7090e-02, -3.6125e-03},
   { 6.7024e-03, -1.0681e-02,  4.7913e-03},
   {-1.6899e-03, -2.0813e-02,  2.1118e-02},
   {-3.4561e-03, -2.6016e-02,  3.9337e-02},},
  {{ 1.8219e-02, -3.8757e-02,  2.6749e-02},
   {-9.2087e-03,  4.9744e-03, -7.6752e-03},
   { 6.9008e-03,  1.0086e-02, -1.1383e-02},
   {-4.0985e-02,  7.2083e-02, -3.1799e-02},
   {-1.0956e-02,  6.5796e-02, -3.6469e-02},
   {-3.4668e-02,  4.3762e-02, -1.2848e-02},
   {-3.7231e-02,  3.5034e-02, -5.9204e-03},},
  {{ 5.0507e-03, -5.6000e-02,  5.4260e-02},
   {-2.0691e-02,  9.5673e-03,  8.6365e-03},
   {-1.8173e-02,  4.0009e-02, -4.6043e-03},
   {-6.5125e-02,  1.3293e-01, -6.9275e-02},
   {-2.7817e-02,  1.4478e-01, -1.0229e-01},
   {-4.6021e-02,  1.2030e-01, -9.3140e-02},
   {-5.5176e-02,  1.0181e-01, -3.9337e-02},},
  {{-5.5504e-03, -2.8030e-02,  3.2013e-02},
   {-2.6611e-02,  5.1819e-02, -4.0192e-02},
   {-2.1011e-02,  1.3074e-01, -1.0925e-01},
   {-2.0050e-02,  2.7710e-01, -2.8296e-01},
   { 4.6356e-02,  3.2080e-01, -3.6572e-01},
   { 2.6657e-02,  2.9688e-01, -3.4497e-01},
   {-5.7373e-02,  2.4402e-01, -1.8335e-01},},
  {{ 1.7824e-03, -4.6112e-02,  5.4077e-02},
   {-2.7557e-02,  4.4800e-02, -1.6068e-02},
   {-3.3051e-02,  1.3379e-01, -1.1017e-01},
   { 1.1425e-03,  3.2031e-01, -3.4106e-01},
   { 8.1787e-02,  3.7793e-01, -4.4360e-01},
   { 3.8055e-02,  3.4253e-01, -3.8208e-01},
   {-5.1056e-02,  2.7686e-01, -2.2412e-01},},
  {{-7.4272e-03, -5.9021e-02,  7.2998e-02},
   {-4.1351e-02,  1.8188e-02,  1.1215e-02},
   {-4.0436e-02,  1.0773e-01, -5.2307e-02},
   {-2.4643e-02,  2.6904e-01, -2.6123e-01},
   { 3.9490e-02,  3.0908e-01, -3.6841e-01},
   { 1.1497e-02,  2.8516e-01, -3.0518e-01},
   {-7.8125e-02,  2.3035e-01, -1.8640e-01},},
  {{-1.3489e-02, -6.3354e-02,  8.7036e-02},
   {-2.0615e-02,  1.0490e-02,  9.9640e-03},
   {-3.2959e-02,  6.2622e-02, -3.9368e-02},
   {-6.7200e-02,  1.8384e-01, -1.4270e-01},
   {-2.5757e-02,  2.2070e-01, -1.8420e-01},
   {-5.8411e-02,  1.9189e-01, -1.6187e-01},
   {-9.5093e-02,  1.9055e-01, -8.1482e-02},},},
 {{{ 6.3171e-03,  9.4528e-03,  5.5466e-03},
   { 4.1504e-03,  6.9504e-03,  4.2152e-03},
   {-2.3746e-04,  8.1539e-04, -2.2297e-03},
   {-2.7332e-03, -3.7842e-03, -6.0768e-03},
   {-4.4556e-03, -5.1689e-03, -6.4240e-03},
   {-3.8185e-03, -1.8301e-03, -1.0605e-03},
   { 3.4046e-03,  7.4730e-03,  8.5983e-03},},
  {{ 1.3885e-03,  3.6907e-03,  7.0477e-04},
   {-5.4779e-03, -5.1804e-03, -4.7531e-03},
   {-1.2199e-02, -1.2306e-02, -1.1818e-02},
   {-7.7553e-03, -8.8806e-03, -7.9422e-03},
   {-7.5645e-03, -8.6823e-03, -6.4888e-03},
   {-1.1162e-02, -7.5722e-03, -4.1656e-03},
   {-8.7357e-03, -2.9964e-03,  1.0099e-03},},
  {{-2.7809e-03, -9.0027e-04, -3.7804e-03},
   {-1.0971e-02, -1.0735e-02, -1.2215e-02},
   {-1.4961e-02, -1.5594e-02, -1.4305e-02},
   {-1.1673e-02, -1.3084e-02, -9.8419e-03},
   {-1.1368e-02, -1.0361e-02, -5.7297e-03},
   {-1.6724e-02, -1.2383e-02, -7.6752e-03},
   {-1.8997e-02, -1.1665e-02, -7.7515e-03},},
  {{-7.0305e-03, -4.5242e-03, -5.2986e-03},
   {-1.1848e-02, -1.0185e-02, -1.0254e-02},
   {-7.7782e-03, -8.2703e-03, -4.3335e-03},
   {-1.5907e-03, -7.2289e-04,  4.7188e-03},
   { 2.8992e-03,  6.5498e-03,  1.2169e-02},
   {-6.4545e-03, -1.3180e-03,  4.3373e-03},
   {-1.6037e-02, -8.3923e-03, -3.9101e-03},},
  {{-8.1482e-03, -1.2321e-03, -1.2875e-03},
   {-1.1757e-02, -6.9389e-03, -4.6272e-03},
   {-9.7961e-03, -7.4005e-03, -4.3106e-03},
   {-1.1730e-03,  2.9545e-03,  5.7602e-03},
   { 7.8726e-04,  6.8626e-03,  1.1009e-02},
   {-9.0637e-03, -3.7327e-03,  2.0638e-03},
   {-1.6953e-02, -9.8877e-03, -7.0839e-03},},
  {{-5.1231e-03,  4.4327e-03,  1.7862e-03},
   {-4.8599e-03,  1.8950e-03,  3.6964e-03},
   {-8.5144e-03, -3.2597e-03,  3.5548e-04},
   {-5.9509e-03, -1.9989e-03,  9.6321e-04},
   {-7.4692e-03, -3.5057e-03, -4.4608e-04},
   {-1.1833e-02, -7.2174e-03, -3.8185e-03},
   {-1.2939e-02, -6.6185e-03, -4.2496e-03},},
  {{ 2.7657e-03,  1.1627e-02,  7.8583e-03},
   {-5.4626e-03,  4.0169e-03,  4.8676e-03},
   {-7.5569e-03,  1.6441e-03,  2.5692e-03},
   {-3.4885e-03,  3.6125e-03,  3.4332e-03},
   {-4.3945e-03,  7.1001e-04,  3.7730e-05},
   {-7.5073e-03, -7.4577e-04, -7.8487e-04},
   {-3.1338e-03,  3.8834e-03,  5.0392e-03},},},
 {{{-3.4943e-02,  1.3535e-02,  1.8417e-02},
   { 1.7334e-02, -4.4670e-03, -2.2934e-02},
   { 5.7770e-02,  9.8724e-03, -1.4824e-02},
   { 3.4576e-02, -1.5419e-02, -4.9713e-02},
   {-1.6937e-02, -8.6746e-03, -4.8599e-03},
   {-4.8462e-02,  1.7822e-02,  5.3467e-02},
   {-5.2643e-02,  9.5978e-03,  2.8748e-02},},
  {{-1.6449e-02, -4.4327e-03,  1.0559e-02},
   { 3.4729e-02, -7.5607e-03, -2.2781e-02},
   {-2.1057e-02, -5.1849e-02, -1.1975e-01},
   { 8.2825e-02,  1.0541e-01,  3.6011e-02},
   { 1.8005e-02,  4.7729e-02,  1.1243e-01},
   {-1.3611e-01, -8.5266e-02, -3.7041e-03},
   {-3.3607e-03, -7.8154e-04,  2.4700e-03},},
  {{ 4.1565e-02,  1.9958e-02,  1.8311e-02},
   {-4.3030e-02, -1.0913e-01, -1.6492e-01},
   { 1.3062e-01,  1.6931e-01,  4.1924e-03},
   { 1.8481e-01,  2.4683e-01,  2.5049e-01},
   {-3.7500e-01, -3.8110e-01, -1.3770e-01},
   {-5.1666e-02,  3.9825e-03,  1.0582e-02},
   { 1.0071e-01,  8.4778e-02,  2.1530e-02},},
  {{ 1.6357e-02, -1.8234e-02, -4.1260e-02},
   { 6.0120e-02,  2.1530e-02, -1.0822e-01},
   { 3.2129e-01,  3.8403e-01,  3.0908e-01},
   {-4.8218e-01, -5.0684e-01, -1.3647e-01},
   {-3.1934e-01, -2.8540e-01, -6.3538e-02},
   { 3.1738e-01,  3.9990e-01,  2.3352e-01},
   { 1.9714e-02, -5.3833e-02, -1.0565e-01},},
  {{ 5.7411e-03, -1.2756e-02, -4.8248e-02},
   { 1.4941e-01,  1.7065e-01,  1.0181e-01},
   {-2.0264e-01, -2.0081e-01, -6.5651e-03},
   {-4.9951e-01, -5.1514e-01, -1.7224e-01},
   { 4.1333e-01,  5.4932e-01,  4.1504e-01},
   { 7.7454e-02,  8.3618e-02, -8.0933e-02},
   {-3.2074e-02, -1.4099e-01, -1.3855e-01},},
  {{ 1.4946e-02,  5.0621e-03, -2.0370e-02},
   {-1.1864e-02,  1.6006e-02,  4.4098e-02},
   {-2.5928e-01, -2.4292e-01, -8.7646e-02},
   { 1.1853e-01,  2.1326e-01,  2.0569e-01},
   { 1.8311e-01,  2.4817e-01,  5.9631e-02},
   {-1.3965e-01, -2.1960e-01, -2.3364e-01},
   { 8.5632e-02,  2.4200e-02,  3.6835e-02},},
  {{-3.6804e-02,  9.7961e-03,  3.2562e-02},
   {-6.1584e-02,  4.7646e-03,  4.8767e-02},
   {-5.9723e-02, -6.8703e-03,  4.4952e-02},
   { 8.6365e-02,  1.0602e-01,  3.4485e-02},
   {-4.9095e-03, -9.2957e-02, -1.4258e-01},
   { 3.9001e-02, -5.2521e-02, -5.0446e-02},
   { 1.0025e-02,  1.9089e-02,  3.8239e-02},},},
 {{{ 9.2621e-03,  2.0874e-02, -1.0139e-02},
   {-2.6741e-03,  8.9645e-03, -6.9847e-03},
   {-3.9864e-04,  3.0174e-03, -1.7014e-02},
   { 2.3148e-02,  2.0889e-02,  1.5747e-02},
   { 7.4310e-03, -4.6730e-03, -6.9199e-03},
   { 1.5350e-02,  2.9411e-03, -8.1863e-03},
   { 3.5187e-02,  1.5251e-02, -1.0376e-03},},
  {{-2.1057e-02, -2.0561e-03, -1.5625e-02},
   {-2.4536e-02,  1.2001e-02,  2.1973e-02},
   {-2.1332e-02,  6.0501e-03,  2.4094e-02},
   {-2.3956e-02, -1.9836e-02,  1.2703e-02},
   {-6.9824e-02, -8.3313e-02, -4.3243e-02},
   {-4.9530e-02, -6.2500e-02, -3.4088e-02},
   { 7.6103e-03,  1.2665e-03,  8.8577e-03},},
  {{-2.0660e-02,  4.5433e-03,  2.1172e-03},
   {-9.4986e-03,  3.2349e-02,  4.9713e-02},
   {-2.3453e-02,  4.7531e-03,  3.4180e-02},
   {-5.0537e-02, -5.6091e-02, -1.3390e-02},
   {-9.1736e-02, -1.1743e-01, -7.3303e-02},
   {-8.9111e-02, -1.1176e-01, -7.6416e-02},
   {-1.6037e-02, -2.3422e-02, -1.7151e-02},},
  {{-2.0645e-02,  8.4610e-03,  1.0254e-02},
   {-1.8021e-02,  3.0914e-02,  4.9622e-02},
   {-2.1713e-02,  1.5656e-02,  3.9215e-02},
   {-1.8463e-02, -2.1164e-02,  1.0475e-02},
   {-4.2572e-02, -7.4890e-02, -3.8452e-02},
   {-5.9448e-02, -8.5388e-02, -5.6732e-02},
   {-2.2949e-02, -3.2806e-02, -2.0187e-02},},
  {{-1.8890e-02,  1.1505e-02,  1.8906e-02},
   {-2.7008e-02,  2.1423e-02,  3.7689e-02},
   {-3.4790e-02, -1.4057e-03,  1.3298e-02},
   { 4.4289e-03,  1.2894e-02,  2.6535e-02},
   {-2.6428e-02, -4.2267e-02, -2.2110e-02},
   {-4.3762e-02, -5.8472e-02, -3.8544e-02},
   {-2.4662e-03, -4.4594e-03, -2.3060e-03},},
  {{-1.9257e-02,  1.7166e-02,  1.5732e-02},
   {-2.7145e-02,  1.1246e-02,  2.2110e-02},
   {-3.3173e-02, -1.2810e-02, -4.1046e-03},
   { 1.2192e-02,  2.0935e-02,  3.2532e-02},
   { 1.2331e-03,  6.3181e-05,  9.2010e-03},
   {-1.9241e-02, -2.1240e-02, -1.5060e-02},
   { 1.0490e-02,  9.0714e-03,  1.2825e-02},},
  {{ 9.8610e-04,  3.2837e-02,  2.1271e-02},
   {-2.4826e-02,  1.1551e-02,  9.9335e-03},
   {-2.3834e-02, -2.5749e-03, -7.9041e-03},
   { 1.6003e-03,  1.2733e-02,  1.0612e-02},
   { 9.4833e-03,  1.3733e-02,  1.0368e-02},
   { 7.3051e-03,  5.3482e-03, -4.2000e-03},
   { 7.8964e-03,  3.5782e-03,  3.6860e-04},},},
 {{{-3.5767e-02,  4.7211e-02, -1.7548e-02},
   { 1.2293e-03,  1.1887e-02, -2.2415e-02},
   {-2.2278e-03,  2.8320e-02, -2.1225e-02},
   { 2.0370e-02, -3.9490e-02,  2.4071e-03},
   { 6.4430e-03, -2.6584e-04, -1.0929e-03},
   {-1.6693e-02,  1.7975e-02,  1.9875e-03},
   {-2.9984e-02,  1.9501e-02,  1.4435e-02},},
  {{-2.1622e-02,  3.9581e-02, -4.6425e-03},
   { 5.6610e-03,  5.5838e-04,  1.9693e-04},
   { 3.5076e-03,  2.8591e-03,  5.1308e-03},
   { 6.4941e-02, -7.5439e-02,  8.6594e-03},
   { 5.0659e-02, -4.8157e-02, -2.9063e-04},
   { 2.9007e-02, -2.9785e-02,  1.3695e-02},
   { 8.3923e-03, -3.2928e-02,  2.9144e-02},},
  {{-8.7036e-02,  7.1777e-02,  2.6413e-02},
   {-5.6183e-02,  2.4353e-02,  2.6901e-02},
   {-5.4901e-02,  6.0844e-03,  5.9784e-02},
   { 8.7036e-02, -1.2134e-01,  4.6356e-02},
   { 1.1310e-01, -1.2610e-01,  3.0090e-02},
   { 7.1960e-02, -9.6619e-02,  3.1433e-02},
   { 2.5501e-03, -5.7953e-02,  6.3293e-02},},
  {{-1.5244e-02,  8.4000e-03, -1.3138e-02},
   { 4.7058e-02, -4.4556e-02, -3.1986e-03},
   { 8.3191e-02, -1.0309e-01,  1.1826e-02},
   { 3.4790e-01, -3.0591e-01, -6.5491e-02},
   { 4.6484e-01, -3.5938e-01, -1.1237e-01},
   { 4.0723e-01, -3.0127e-01, -1.0394e-01},
   { 2.4487e-01, -2.2083e-01, -2.6764e-02},},
  {{-6.5430e-02,  5.2307e-02,  3.0228e-02},
   {-2.1591e-02, -8.5373e-03,  2.3514e-02},
   { 4.8035e-02, -9.4910e-02,  3.3966e-02},
   { 3.7256e-01, -3.2520e-01, -5.3864e-02},
   { 5.0488e-01, -3.9453e-01, -1.0773e-01},
   { 4.2578e-01, -3.3154e-01, -9.7534e-02},
   { 2.2803e-01, -2.2925e-01,  2.5883e-03},},
  {{-7.8918e-02,  5.2673e-02,  1.7059e-02},
   {-3.0380e-02, -2.9831e-03,  3.4027e-02},
   { 4.5685e-02, -6.5491e-02,  3.9459e-02},
   { 2.9248e-01, -2.8198e-01, -3.8300e-02},
   { 3.7695e-01, -3.0664e-01, -8.2825e-02},
   { 3.0933e-01, -2.6685e-01, -4.8889e-02},
   { 1.3110e-01, -2.0044e-01,  5.2307e-02},},
  {{-7.9895e-02,  5.2216e-02,  3.3844e-02},
   {-1.1475e-02,  1.8559e-03,  1.6739e-02},
   { 4.8187e-02, -3.9154e-02,  4.6883e-03},
   { 2.0435e-01, -1.9580e-01, -1.8021e-02},
   { 2.1838e-01, -2.0959e-01, -2.5360e-02},
   { 1.5820e-01, -1.7603e-01,  1.4839e-02},
   { 6.2073e-02, -1.5027e-01,  9.8145e-02},},},
 {{{ 2.7466e-02, -1.0492e-01,  9.0149e-02},
   { 1.9012e-02, -9.3140e-02,  6.1462e-02},
   { 3.2013e-02, -7.2937e-02,  3.4302e-02},
   { 7.0190e-02, -1.5793e-02, -2.8534e-02},
   { 1.1513e-02, -3.1052e-03, -2.0844e-02},
   {-2.4948e-02,  1.3702e-02,  1.4183e-02},
   {-4.6234e-02,  1.3779e-02,  4.7363e-02},},
  {{ 1.2054e-02, -9.1003e-02,  7.9468e-02},
   { 2.2720e-02, -6.9946e-02,  5.5847e-02},
   { 5.4565e-02, -3.0624e-02, -2.1027e-02},
   { 4.6936e-02,  5.3375e-02, -1.0242e-01},
   {-4.4708e-02,  9.5276e-02, -6.3416e-02},
   {-1.0144e-01,  1.0400e-01,  7.3128e-03},
   {-1.2140e-01,  8.3008e-02,  4.7852e-02},},
  {{ 3.9520e-02, -8.5266e-02,  3.2288e-02},
   { 7.0129e-02, -4.6753e-02, -3.1006e-02},
   { 1.0358e-01,  3.2745e-02, -1.2158e-01},
   { 2.7878e-02,  1.4331e-01, -1.7261e-01},
   {-1.0583e-01,  1.9788e-01, -7.6721e-02},
   {-1.7981e-01,  1.8225e-01, -6.4316e-03},
   {-1.6016e-01,  1.3733e-01,  2.1469e-02},},
  {{ 6.5796e-02, -4.5593e-02,  7.5035e-03},
   { 4.6082e-02,  2.0782e-02, -6.8970e-02},
   {-2.6455e-03,  1.1041e-01, -1.2323e-01},
   {-1.4124e-01,  2.4915e-01, -9.5459e-02},
   {-2.9614e-01,  2.8198e-01,  1.4381e-03},
   {-3.1714e-01,  2.4524e-01,  3.2837e-02},
   {-2.3877e-01,  1.7273e-01,  4.2358e-02},},
  {{ 6.1737e-02, -3.6530e-02, -2.9480e-02},
   { 2.7496e-02,  4.5471e-02, -5.8105e-02},
   {-6.9336e-02,  1.3599e-01, -6.1493e-02},
   {-2.2827e-01,  2.4243e-01, -3.5675e-02},
   {-3.0151e-01,  2.7905e-01,  5.6671e-02},
   {-2.5928e-01,  2.4231e-01,  3.6743e-02},
   {-1.5515e-01,  1.6016e-01, -1.1749e-02},},
  {{ 4.6722e-02, -4.1473e-02, -3.2776e-02},
   { 1.3512e-02,  4.2511e-02, -2.8931e-02},
   {-8.0627e-02,  9.9670e-02, -3.6682e-02},
   {-2.0728e-01,  1.6724e-01,  3.9444e-03},
   {-2.3853e-01,  1.7896e-01,  5.0842e-02},
   {-1.4502e-01,  1.4490e-01, -2.5620e-02},
   { 7.2823e-03,  8.9722e-02, -1.2781e-01},},
  {{ 2.9037e-02, -3.9276e-02,  2.7054e-02},
   {-2.5894e-02,  9.0866e-03,  2.6962e-02},
   {-1.0004e-01,  3.4302e-02,  3.8971e-02},
   {-1.6064e-01,  9.7778e-02,  7.1716e-02},
   {-1.4978e-01,  8.8379e-02,  4.7211e-02},
   {-1.6953e-02,  7.9895e-02, -4.8645e-02},
   { 1.3074e-01,  3.0838e-02, -1.5930e-01},},},
 {{{-8.2779e-03,  2.8030e-02,  2.3697e-02},
   {-3.2558e-03,  1.6575e-03, -1.2718e-02},
   { 6.1127e-02,  5.4199e-02, -6.6490e-03},
   { 9.9182e-02,  1.1023e-01,  1.5587e-02},
   {-5.1453e-02, -4.3427e-02, -5.7983e-03},
   {-9.6741e-02, -9.3262e-02, -2.5208e-02},
   {-2.8553e-03,  2.8748e-02,  1.7319e-02},},
  {{-1.5327e-02, -9.4757e-03,  1.0094e-02},
   {-5.3291e-03, -1.3496e-02, -3.4027e-02},
   { 9.2529e-02,  8.7158e-02, -2.2263e-02},
   { 1.4856e-01,  1.5503e-01,  4.0680e-02},
   {-1.3635e-01, -1.6199e-01, -4.7455e-02},
   {-1.3965e-01, -1.6736e-01, -3.7231e-02},
   { 5.3986e-02,  7.0923e-02,  4.0924e-02},},
  {{-4.0009e-02, -2.0828e-02, -2.4780e-02},
   { 2.4506e-02,  2.0569e-02, -3.8269e-02},
   { 1.2256e-01,  1.3208e-01, -2.1439e-02},
   { 1.6077e-01,  1.6577e-01,  8.0811e-02},
   {-2.7075e-01, -3.3911e-01, -1.1395e-01},
   {-1.7664e-01, -2.1106e-01, -2.5482e-02},
   { 9.6680e-02,  1.4661e-01,  8.3862e-02},},
  {{-3.4363e-02, -4.9019e-03, -1.4122e-02},
   { 5.0415e-02,  6.6650e-02, -2.3712e-02},
   { 1.6284e-01,  1.9092e-01,  1.8326e-02},
   { 1.0236e-01,  9.1187e-02,  7.2754e-02},
   {-3.3154e-01, -4.4385e-01, -1.4148e-01},
   {-1.5210e-01, -1.9739e-01, -1.2718e-02},
   { 1.5515e-01,  1.9421e-01,  9.1187e-02},},
  {{-1.0605e-03,  6.2037e-04, -7.7972e-03},
   { 3.4637e-02,  3.4698e-02, -5.1758e-02},
   { 2.1179e-01,  2.3486e-01,  9.8450e-02},
   { 1.7548e-02,  2.8000e-03,  5.2887e-02},
   {-3.5010e-01, -4.4971e-01, -1.4233e-01},
   {-8.7036e-02, -9.7778e-02,  1.7090e-02},
   { 1.6003e-01,  1.9910e-01,  6.1157e-02},},
  {{ 9.1095e-03,  6.1340e-03, -1.3092e-02},
   { 1.0803e-02,  4.1924e-03, -5.4749e-02},
   { 1.7261e-01,  1.8579e-01,  1.0535e-01},
   {-5.5573e-02, -9.3628e-02, -1.1414e-02},
   {-2.6636e-01, -3.3667e-01, -9.7595e-02},
   {-7.1678e-03,  6.1417e-03,  3.8971e-02},
   { 1.0620e-01,  1.4307e-01,  3.1769e-02},},
  {{ 1.5526e-02,  1.1116e-02, -1.7807e-02},
   { 6.2866e-03,  5.9624e-03, -3.0914e-02},
   { 7.8186e-02,  7.7820e-02,  7.3547e-02},
   {-1.3574e-01, -1.4172e-01, -5.0232e-02},
   {-1.7993e-01, -1.9531e-01, -4.0009e-02},
   {-3.3398e-03,  2.4521e-02,  4.1565e-02},
   { 5.2551e-02,  6.9763e-02, -2.6035e-03},},},
 {{{ 1.0826e-02, -6.6490e-03, -2.6031e-02},
   { 9.9487e-03, -9.0637e-03, -2.7100e-02},
   { 1.4702e-02, -1.4809e-02, -1.7471e-02},
   { 1.5289e-02, -2.2308e-02, -2.6260e-02},
   { 1.3832e-02, -2.9709e-02, -4.7028e-02},
   { 2.6169e-02, -1.6098e-02, -3.9093e-02},
   { 2.8549e-02, -9.1248e-03, -3.2196e-02},},
  {{-2.5196e-03, -3.3913e-03, -1.1749e-02},
   {-3.9215e-03, -9.0485e-03, -9.0332e-03},
   {-2.7267e-02, -4.2694e-02, -3.0479e-03},
   {-3.3173e-02, -4.7028e-02,  7.9041e-03},
   {-3.3539e-02, -5.4321e-02, -2.2705e-02},
   { 1.4954e-02, -6.2599e-03, -4.2419e-03},
   { 1.1871e-02, -5.4245e-03, -1.6098e-02},},
  {{-2.9774e-03, -2.4390e-04, -6.2065e-03},
   {-1.2848e-02, -1.2062e-02,  2.3079e-03},
   {-1.0849e-02,  5.6267e-03,  8.0994e-02},
   { 1.0010e-01,  1.4160e-01,  2.5513e-01},
   {-5.5809e-03,  1.0780e-02,  9.4482e-02},
   {-1.5732e-02, -2.3636e-02,  3.3073e-03},
   { 7.2899e-03, -3.3150e-03,  6.5267e-05},},
  {{-4.9362e-03,  4.5929e-03, -1.6068e-02},
   {-3.4363e-02, -1.8051e-02, -1.7807e-02},
   {-8.6136e-03,  3.0182e-02,  7.8613e-02},
   { 1.0822e-01,  1.7810e-01,  2.5928e-01},
   {-3.5248e-02,  3.6221e-03,  6.0120e-02},
   {-3.9307e-02, -2.6520e-02, -1.5213e-02},
   {-1.1833e-02, -7.0000e-03, -7.6942e-03},},
  {{-4.9362e-03, -1.2474e-03, -3.1372e-02},
   {-1.4610e-02,  7.4923e-05, -3.3630e-02},
   {-2.3666e-02, -3.6030e-03, -2.3376e-02},
   {-5.3833e-02, -2.2568e-02, -3.2806e-02},
   {-5.3711e-02, -3.6774e-02, -5.2734e-02},
   { 3.7785e-03,  9.3460e-03, -1.0887e-02},
   { 3.6693e-04,  1.3094e-03, -1.1345e-02},},
  {{ 1.0712e-02,  5.5275e-03, -1.7517e-02},
   { 1.7996e-03,  1.0490e-02, -2.6108e-02},
   {-3.4809e-03,  7.6256e-03, -3.2654e-02},
   { 3.3970e-03,  1.5602e-02, -2.5925e-02},
   {-3.1357e-03,  9.0981e-04, -4.2755e-02},
   { 8.5449e-03,  9.5062e-03, -2.1637e-02},
   {-2.1305e-03, -7.0534e-03, -2.7756e-02},},
  {{ 1.0353e-02,  2.7885e-03, -2.0508e-02},
   { 4.5700e-03,  1.0612e-02, -2.3102e-02},
   {-5.9357e-03,  3.8643e-03, -3.0334e-02},
   { 2.1229e-03,  1.6129e-02, -2.0920e-02},
   { 1.9646e-03,  6.5765e-03, -3.0502e-02},
   { 1.2421e-02,  7.2403e-03, -2.5909e-02},
   { 9.3613e-03, -4.7073e-03, -3.7201e-02},},},
 {{{ 3.4302e-02,  8.2626e-03,  1.4412e-02},
   {-1.0433e-03,  9.7656e-03, -1.7176e-03},
   { 5.0415e-02,  6.6162e-02,  3.0380e-02},
   { 6.4819e-02,  6.1279e-02, -9.5825e-03},
   {-4.9408e-02, -8.5632e-02, -5.0354e-02},
   {-9.4238e-02, -1.1884e-01, -3.4546e-02},
   { 7.3586e-03,  3.5248e-02,  1.0089e-01},},
  {{-3.8757e-03, -4.8523e-02, -1.6968e-02},
   { 5.3215e-03,  3.2215e-03, -8.9188e-03},
   { 7.0435e-02,  8.2642e-02,  7.6370e-03},
   { 1.4258e-01,  1.4807e-01,  2.4155e-02},
   {-4.4281e-02, -1.0693e-01, -6.3904e-02},
   {-1.7004e-01, -2.5952e-01, -1.1737e-01},
   {-8.6304e-02, -1.3416e-01,  9.3842e-03},},
  {{-1.6891e-02, -4.3152e-02, -8.1406e-03},
   { 4.4823e-03,  3.2410e-02,  4.6234e-03},
   { 1.0950e-01,  1.6113e-01,  3.0457e-02},
   { 2.4695e-01,  3.0225e-01,  1.0309e-01},
   { 3.7567e-02,  1.2589e-02, -1.0666e-02},
   {-1.8701e-01, -2.7295e-01, -1.0614e-01},
   {-1.6333e-01, -2.4072e-01, -4.6356e-02},},
  {{-6.7017e-02, -6.8665e-02, -2.6245e-03},
   {-4.6875e-02, -7.8964e-03, -3.4809e-03},
   { 1.2402e-01,  1.9275e-01,  4.4403e-02},
   { 2.8418e-01,  3.8208e-01,  1.2305e-01},
   { 1.3159e-01,  1.4294e-01,  4.3365e-02},
   {-1.5173e-01, -2.4622e-01, -9.2041e-02},
   {-1.9934e-01, -3.0835e-01, -6.7932e-02},},
  {{-7.3914e-02, -9.0332e-02, -6.5613e-03},
   {-7.0007e-02, -4.9469e-02, -2.0752e-02},
   { 1.2384e-01,  1.8787e-01,  5.9174e-02},
   { 2.7734e-01,  3.8452e-01,  1.1066e-01},
   { 1.6541e-01,  2.0642e-01,  4.8248e-02},
   {-7.8247e-02, -1.4343e-01, -6.5796e-02},
   {-1.6223e-01, -2.6904e-01, -5.8746e-02},},
  {{-9.1125e-02, -1.0406e-01, -1.7761e-02},
   {-1.2396e-01, -9.9915e-02, -3.1586e-02},
   { 1.0094e-02,  5.1331e-02,  5.1422e-03},
   { 1.7065e-01,  2.4072e-01,  5.8807e-02},
   { 1.3696e-01,  1.6980e-01,  3.3478e-02},
   {-2.4277e-02, -6.0516e-02, -3.7506e-02},
   {-1.0699e-01, -1.7871e-01, -4.3182e-02},},
  {{-2.3315e-02, -3.7109e-02,  2.3529e-02},
   {-1.1371e-01, -9.7595e-02, -3.9215e-02},
   {-2.7267e-02, -2.6321e-03, -7.9346e-03},
   { 1.2103e-01,  1.7493e-01,  6.3232e-02},
   { 1.3513e-01,  1.6125e-01,  4.9805e-02},
   { 6.1676e-02,  5.3131e-02,  2.4292e-02},
   {-2.7451e-02, -5.2185e-02,  1.1375e-02},},},
 {{{-1.5022e-02, -7.5226e-03, -1.2337e-02},
   {-1.3939e-02, -7.7095e-03, -2.1027e-02},
   {-1.2695e-02, -4.9133e-03, -1.6815e-02},
   {-6.0234e-03,  4.1809e-03, -7.5874e-03},
   {-1.1168e-03,  8.1635e-03, -5.5389e-03},
   {-7.0114e-03,  1.5650e-03, -1.4603e-02},
   {-6.4392e-03,  2.1877e-03, -1.4526e-02},},
  {{-5.2376e-03,  4.7493e-03, -3.5610e-03},
   {-5.7106e-03,  3.3970e-03, -1.4717e-02},
   {-8.8272e-03,  3.1338e-03, -1.5266e-02},
   {-3.0117e-03,  1.1398e-02, -6.8741e-03},
   {-6.9313e-03,  7.6332e-03, -1.0773e-02},
   {-1.4954e-02, -1.1110e-03, -1.8417e-02},
   {-9.0714e-03,  6.1951e-03, -1.2695e-02},},
  {{-4.3526e-03,  8.2855e-03, -2.7847e-03},
   {-4.2839e-03,  9.9869e-03, -1.1848e-02},
   {-5.5275e-03,  8.0490e-03, -1.2749e-02},
   {-3.0899e-03,  1.0353e-02, -1.0094e-02},
   {-6.6757e-03,  7.8354e-03, -1.2062e-02},
   {-1.0704e-02,  6.0959e-03, -1.2947e-02},
   {-6.5765e-03,  1.0101e-02, -9.7122e-03},},
  {{-5.8746e-03,  3.0518e-03, -1.1391e-02},
   {-3.8414e-03,  8.0032e-03, -1.6342e-02},
   {-9.4376e-03,  1.8606e-03, -1.8951e-02},
   {-1.5076e-02, -4.3335e-03, -2.0798e-02},
   {-1.9485e-02, -8.2932e-03, -2.6672e-02},
   {-1.1475e-02,  2.1815e-04, -2.0309e-02},
   {-5.6686e-03,  8.2016e-03, -1.3809e-02},},
  {{-6.1951e-03,  2.3499e-03, -9.8801e-03},
   {-1.1101e-02, -4.4918e-04, -2.0294e-02},
   {-7.8201e-03,  7.0152e-03, -5.8060e-03},
   {-9.8610e-04,  1.7838e-02,  6.5269e-03},
   {-1.2787e-02,  1.7490e-03, -1.1414e-02},
   {-8.6212e-03,  2.6493e-03, -1.3206e-02},
   {-9.0075e-04,  1.1955e-02, -1.0918e-02},},
  {{-1.2253e-02, -1.1082e-03, -1.6479e-02},
   {-5.1918e-03,  8.4000e-03, -1.4648e-02},
   { 2.4017e-02,  4.7699e-02,  2.9175e-02},
   { 4.8523e-02,  7.6538e-02,  6.1188e-02},
   { 1.2344e-02,  3.1982e-02,  1.4549e-02},
   {-1.5137e-02,  1.1940e-03, -1.7334e-02},
   {-8.5449e-03,  8.9874e-03, -1.6449e-02},},
  {{-1.3161e-02,  1.6031e-03, -1.4229e-02},
   {-8.6060e-03,  9.5978e-03, -1.7334e-02},
   { 9.1171e-03,  3.2196e-02,  3.4809e-03},
   { 2.5757e-02,  4.8981e-02,  2.0981e-02},
   {-2.7351e-03,  1.5320e-02, -1.2955e-02},
   {-2.0889e-02, -5.7869e-03, -3.1860e-02},
   {-1.0666e-02,  4.9324e-03, -2.2354e-02},},},
 {{{-1.6754e-02,  1.1398e-02, -1.3451e-02},
   { 7.7057e-03,  2.6031e-02,  1.3855e-02},
   { 9.2087e-03,  2.7817e-02,  2.8534e-02},
   { 2.8717e-02,  5.0293e-02,  4.8462e-02},
   { 2.1744e-02,  5.0385e-02,  5.2002e-02},
   {-5.4121e-04,  2.6230e-02,  1.9791e-02},
   {-2.4673e-02,  4.5853e-03, -2.6436e-03},},
  {{ 1.1578e-03, -2.7733e-03, -2.1942e-02},
   {-4.2999e-02, -5.5115e-02, -6.1096e-02},
   {-1.0034e-01, -1.1578e-01, -9.5398e-02},
   {-1.1945e-01, -1.5405e-01, -1.0925e-01},
   {-1.0010e-01, -1.4294e-01, -8.3801e-02},
   {-4.4556e-02, -7.3242e-02, -3.3875e-02},
   {-1.4257e-03, -2.9907e-02, -1.4603e-02},},
  {{ 4.4647e-02,  5.4443e-02,  3.9398e-02},
   { 1.2988e-01,  1.4221e-01,  8.2581e-02},
   { 1.8750e-01,  2.2327e-01,  1.1133e-01},
   { 1.8835e-01,  2.5073e-01,  6.7871e-02},
   { 1.1224e-01,  1.7017e-01,  1.6968e-02},
   { 3.3447e-02,  7.5134e-02, -3.3325e-02},
   { 6.0272e-02,  5.7983e-02,  6.7101e-03},},
  {{-5.6641e-02, -8.1848e-02, -3.1342e-02},
   {-1.0028e-01, -1.4648e-01, -4.7302e-02},
   {-1.2769e-01, -1.7102e-01, -5.6030e-02},
   { 1.0849e-02, -2.8046e-02,  4.4495e-02},
   { 1.6125e-01,  1.3538e-01,  1.6016e-01},
   { 1.6431e-01,  1.3489e-01,  1.4893e-01},
   { 5.1270e-02,  2.6886e-02,  5.4901e-02},},
  {{ 8.1711e-03,  1.0620e-02,  1.8616e-02},
   { 2.6283e-03, -7.6447e-03,  1.2169e-02},
   {-1.1230e-01, -1.3342e-01, -4.1595e-02},
   {-3.3374e-01, -4.1943e-01, -2.0508e-01},
   {-4.6387e-01, -5.7275e-01, -3.0640e-01},
   {-3.3691e-01, -4.4141e-01, -2.4390e-01},
   {-1.7432e-01, -2.1521e-01, -1.1346e-01},},
  {{ 4.2610e-03,  1.9882e-02, -4.9133e-03},
   { 4.8950e-02,  6.2866e-02,  4.6539e-03},
   { 1.7749e-01,  2.3828e-01,  1.0388e-01},
   { 3.6890e-01,  4.9854e-01,  2.7759e-01},
   { 4.1089e-01,  5.5029e-01,  3.1519e-01},
   { 2.7173e-01,  3.6865e-01,  2.0801e-01},
   { 9.8328e-02,  1.4282e-01,  1.1151e-01},},
  {{ 1.8143e-02,  2.3636e-02,  5.8594e-03},
   {-3.7460e-03, -2.7142e-03, -4.8676e-03},
   {-8.0383e-02, -8.1116e-02, -6.8909e-02},
   {-1.3184e-01, -1.5588e-01, -1.4258e-01},
   {-1.4844e-01, -1.6675e-01, -1.5723e-01},
   {-8.6731e-02, -8.5876e-02, -9.2346e-02},
   {-1.7105e-02,  9.1934e-03, -1.3329e-02},},},
 {{{-2.3327e-03,  2.1179e-02, -7.0686e-03},
   {-2.0294e-02,  5.2872e-03, -1.4381e-02},
   { 4.0894e-03,  4.2786e-02,  3.7933e-02},
   {-1.4771e-02, -1.1589e-02, -3.8395e-03},
   {-1.1673e-02, -1.0979e-02, -1.0506e-02},
   { 1.6861e-02,  3.1311e-02,  1.5076e-02},
   { 3.5191e-03,  3.2532e-02,  5.6801e-03},},
  {{-1.3824e-02,  1.8036e-02,  2.4948e-03},
   {-3.3997e-02, -9.5749e-03,  3.9062e-03},
   {-1.2978e-02,  1.2825e-02,  4.8492e-02},
   {-5.0507e-02, -4.2908e-02, -1.4175e-02},
   {-1.7914e-02, -2.0950e-02,  2.0615e-02},
   {-3.3550e-03, -6.3419e-04,  1.9424e-02},
   {-1.8188e-02,  1.6006e-02,  1.0101e-02},},
  {{ 1.3405e-02,  3.4485e-02,  2.4994e-02},
   {-2.1194e-02, -3.8509e-03,  1.7380e-02},
   {-7.5722e-03, -8.5115e-04,  3.0838e-02},
   {-5.3375e-02, -7.3853e-02, -4.1718e-02},
   {-1.6693e-02, -6.0760e-02, -7.0305e-03},
   { 2.4445e-02, -2.0523e-03,  2.8336e-02},
   { 8.8787e-04,  1.3824e-02,  2.6703e-02},},
  {{ 3.4981e-03, -6.7863e-03,  1.7426e-02},
   {-5.7831e-02, -6.4758e-02, -2.4139e-02},
   {-6.1127e-02, -8.9722e-02, -3.2501e-02},
   {-6.7322e-02, -1.5503e-01, -9.2407e-02},
   {-4.9713e-02, -1.4490e-01, -7.7820e-02},
   {-5.7251e-02, -1.2463e-01, -6.7749e-02},
   {-9.5825e-02, -1.0468e-01, -5.2979e-02},},
  {{-6.5956e-03, -1.2375e-02,  5.0430e-03},
   {-7.1228e-02, -7.9285e-02, -2.4658e-02},
   {-8.5388e-02, -1.2500e-01, -5.6213e-02},
   {-6.4697e-02, -1.6431e-01, -1.0059e-01},
   {-7.1594e-02, -1.6699e-01, -1.0327e-01},
   {-8.6853e-02, -1.5369e-01, -9.5215e-02},
   {-1.0455e-01, -1.2219e-01, -7.4402e-02},},
  {{ 9.0485e-03,  2.9221e-02,  1.7685e-02},
   {-2.2217e-02, -1.8616e-02,  1.9379e-02},
   {-5.7739e-02, -7.8918e-02, -3.5248e-02},
   {-9.1248e-02, -1.6809e-01, -1.3574e-01},
   {-3.4485e-02, -1.2195e-01, -7.1228e-02},
   {-6.6040e-02, -1.2720e-01, -7.9285e-02},
   {-5.1727e-02, -5.9082e-02, -1.2718e-02},},
  {{ 1.3000e-02,  3.2166e-02,  9.5062e-03},
   {-9.6560e-04,  1.2733e-02,  2.6230e-02},
   { 1.0956e-02,  1.6434e-02,  3.4302e-02},
   {-3.7811e-02, -7.3792e-02, -5.9570e-02},
   {-2.7496e-02, -6.6772e-02, -3.7292e-02},
   {-2.5040e-02, -4.7638e-02, -1.3489e-02},
   {-1.1269e-02,  9.4070e-03,  3.8422e-02},},},
